tree
version=v3
num_class=1
num_tree_per_iteration=1
label_index=0
max_feature_idx=73
objective=lambdarank
feature_names=feature_1 feature_2 feature_4 feature_5 feature_6 feature_7 feature_8 feature_9 feature_10 feature_11 feature_12 feature_13 feature_14 feature_15 feature_16 feature_17 feature_18 feature_19 feature_20 feature_21 feature_22 feature_23 feature_24 feature_25 feature_26 feature_27 feature_28 feature_29 feature_30 feature_31 feature_32 feature_33 feature_34 feature_35 feature_36 feature_37 feature_38 feature_39 feature_40 feature_41 feature_42 feature_43 feature_44 feature_45 feature_46 feature_47 feature_48 feature_49 feature_50 feature_51 feature_52 feature_53 feature_54 feature_55 feature_56 feature_57 feature_58 feature_59 feature_60 feature_61 feature_62 feature_63 feature_64 feature_65 feature_66 feature_67 feature_68 feature_69 feature_70 feature_71 feature_72 feature_76 feature_77 feature_78
feature_infos=[-0.30918704556066579:4.4781331126532979] [-0.39244499254573423:4.679074229889757] [-1.3044563366756319:0.76655177085202397] [-8.2520554863431759:4.5207035409789018] [-2.9869250061100128:1.3429165609344873] [-0.54194800665437348:2.590200532625285] [-0.95157620811378951:2.7616920269044494] [-1.904530109198207:0.52502652900329527] [-0.60999696474731591:1.6392363421852687] [-0.59190475844623003:1.6893412579421154] [-0.34461558232364231:2.9015727980778876] [-0.36429083814935787:2.7448603390608661] [-0.78111638215235557:1.28012879006806] [-0.098525352890828394:10.148790832947675] [-1.3700164169141442:0.78131334389122231] [-0.60546164996040486:1.8508837356050523] [-0.3541496304606439:3.3294113351471921] [-0.91249019559377853:1.4584410606052043] [-0.92191864954088532:1.5856678152656369] [-0.89512855301738803:1.6823671279239432] [-0.8698563514474994:1.6699464716345758] [-0.68313393500810959:2.0510810180340893] [-1.5642108062627682:4.3373809096356606] [-1.9801994040714956:7.586823221385691] [-1.9568400733677207:10.109478175268151] [-1.9514612469723027:10.371679480959374] [-1.8726502095348507:7.9574996282584625] [-1.7745380549695702:6.6091030788307972] [-1.6816072168276432:9.055247897740264] [-1.5431677097182608:13.467998297626572] [-1.7088999170753834:6.3114483768024821] [-1.3221950963591853:6.9145424412603385] [-1.4538616350800928:3.5640101407778308] [-0.95513536871805205:3.4973188924718559] [-0.57297285812767207:3.9465687078385887] [-0.85603916804621816:2.4405143168626586] [-0.90101301825313773:3.0841620313427587] [-1.2245604550024762:4.8972861327875341] [-0.48208721533342042:9.2932257201733552] [-0.93321393024727783:4.564508845876234] [-1.0350918054924687:5.3372911393588822] [-4.0945708903076143:2.1684941733559908] [-1.6777020482573062:4.1639750378250344] [-1.3660294001201656:2.1164208237832409] [-1.8151210754844385:1.9553602777278569] [-0.51161059208143278:13.653054757569105] [-0.66229204861497215:6.216015129107066] [-3.2152784531394976:1.9469405073298545] [-2.6490579891935138:2.7396912173841748] [-1.3855036014664579:25.835475676717824] [-0.91780032798693523:58.10745243740584] [-1.0306633070293467:4.2443644295419141] [-0.92222211465855941:2.4282787046736711] [-1.1070352570873727:1.8037905703664909] [-0.73806164170571986:3.4432022861888401] [-0.17095785132094404:20.667146986381365] [-0.35526118616954261:12.57537641674824] [-0.62321551815363796:1.6533041860018327] [-0.36617485396859151:2.8267054077288107] [-0.18396844418648498:8.7850879354785363] [-1.3871956929974394:2.2880697404704513] [-1.0201052858585635:4.6500579188727338] [-0.6784193467753229:10.272523200144029] [-0.9845693887466278:2.9311553390260978] [-0.81908313259745091:2.044712055192047] [-2.900314091492243:3.6226878683804857] [-1.5112968572217425:3.085143996628525] [-1.0863691164843658:4.9397704926421726] [-2.249026344264609:3.2230491565218604] [-1.7241775920255014:2.3142861231604996] [-1.5233108138588864:4.9760575522029153] [-0.95352718240082612:2.2520445925323234] [-0.2703279288451812:7.2197685361311796] [-0.26996098286603259:7.5859176807795903]
tree_sizes=3369 3412 3401 3406 3394 3410 3401 3414 3397 3383 3409 3400 3398 3409 3400 3414 3410 3403 3424 3435 3409 3417 3410 3398 3429 3409 3429 3422 3401 3408 3428 3419 3419 3421 3409 3412 3420 3418 3429 3404 3405 3407 3407 3409 3412 3411 3421 3417 3416 3416 3421 3423 3427 3416 3426 3427 3418 3404 3410 3408 3405 3412 3408 3419 3415 3414 3417 3403 3411 3416 3413 3408 3406 3416 3427 3422 3413 3411 3408 3423 3419 3416 3406 3418 3402 3426 3413 3420 3411 3411 3412 3414 3417 3431 3401 3425 3405 3412 3413 3410 3400 3398 3429 3414 3443 3437 3430 3434 3423 3414 3426 3429 3426 3435 3410 3433 3429 3416 3425 3423 3423 3413 3424 3418 3409 3436 3434 3418 3440 3424 3423 3421 3442 3417 3425 3423 3428 3406 3427 3411 3418 3421 3425 3420 3426 3407 3418 3419 3427 3425 3426 3432 3415 3420 3419 3439 3421 3432 3444 3432 3420 3412 3441 3433 3419 3419 3430 3425 3425 3418 3418 3427 3433 3432 3439 3430 3425 3432 3430 3428 3407 3428 3414 3436 3436 3407 3438 3422 3409 3447 3441 3401 3431 3403 3429 3394 3436 3414 3436 3434 3437 3439 3446 3430 3436 3446 3440 3429 3426 3416 3451 3432 3436 3423 3431 3451 3433 3434 3435 3433 3439 3432 3437 3428 3440 3447 3438 3444 3430 3429 3438 3422 3426 3443 3425 3441 3453 3422 3416 3420 3431 3416 3412 3432 3433 3427 3438 3429 3442 3429 3441 3442 3440 3453 3445 3440 3442 3433 3433 3448 3440 3443 3425 3435 3433 3430 3433 3426 3441 3426 3434 3437 3440 3418 3425 3442 3440 3427 3428 3434 3423 3426 3445 3429 3423 3441 3424 3421 3437 3428 3430 3435 3425 3423 3429 3454 3435 3429 3429 3453 3429 3426 3437 3424 3415 3435 3432 3426 3445 3453 3428 3450 3433 3450 3437 3445 3456 3455 3457 3457 3429 3442 3440 3449 3452 3460 3451 3456 3451 3450 3437 3454 3459 3456 3457 3454 3474 3455 3466 3449 3463 3459 3472 3465 3469 3466 3458 3475 3479 3475 3462 3449 3440 3448 3456 3466 3449 3447 3467 3467 3460 3456 3474 3455 3470 3454 3449 3460 3452 3464 3455 3476 3483 3480 3470 3473 3480 3472 3475 3494 3484 3458 3478 3465 3475 3469 3466 3474 3480 3466 3472 3464 3489 3472 3467 3483 3471 3486 3464 3482 3475 3474 3462 3474 3478 3474 3476 3465 3485 3474 3498 3490 3478 3479 3471 3473 3472 3475 3486 3478 3481 3485 3474 3471 3487 3476 3476 3482 3473 3457 3460 3477 3477 3493 3466 3480 3478 3479 3467 3481 3498 3461 3490 3489 3490 3469 3477 3464 3471 3494 3489 3491 3482 3473 3490 3493 3484 3487 3484 3489 3490 3488 3482 3489 3478 3477 3491 3490 3483 3497 3468 3476 3493 3475 3488 3494 3488 3474 3481 3496 3469 3478 3491 3481 3486 3497 3495 3502 3495 3496 3481 3488 3485 3493 3488 3489 3495 3485 3495 3487 3500 3485 3481 3495 3488 3490 3484 3471 3484 3497 3487 3507 3487 3486 3472 3488 3477 3485 3478 3503 3491 3483 3485 3496 3490 3485 3494 3492 3478 3503 3490 3468 3502 3488 3487 3500 3506 3493 3491 3490 3473 3496 3487 3486 3479 3500 3482 3495 3498 3509 3486 3493 3494 3485 3487 3501 3507 3497 3490 3504 3510 3498 3494 3508 3488 3505 3501 3511 3496 3494 3509 3490 3520 3495 3495 3492 3491 3482 3503 3497 3497 3518 3517 3497 3514 3487 3488 3508 3517 3501 3500 3517 3498 3506 3494 3503 3519 3498 3513 3498 3489 3509 3512 3511 3503 3509 3508 3510 3511 3513 3499 3527 3516 3525 3509 3525 3516 3524 3502 3525 3519 3502 3515 3505 3511 3503 3517 3509 3522 3515 3503 3511 3507 3531 3505 3510 3507 3503 3519 3519 3517 3529 3510 3529 3525 3534 3522 3526 3499 3518 3521 3512 3531 3518 3527 3516 3529 3519 3525 3532 3517 3530 3527 3511 3525 3517 3530 3535 3535 3530 3524 3528 3538 3515 3542 3510 3516 3531 3531 3538 3528 3523 3542 3530 3528 3543 3528 3531 3538 3545 3530 3556 3537 3516 3552 3519 3536 3550 3544 3536 3522 3548 3540 3552 3550 3540 3548 3540 3552 3531 3552 3542 3553 3539 3549 3538 3556 3541 3548 3550 3549 3544 3553 3558 3547 3536 3554 3538 3538 3540 3555 3554 3542 3545 3548 3533 3537 3544 3543 3553 3552 3564 3566 3538 3547 3565 3568 3550 3569 3552 3539 3547 3555 3562 3543 3559 3542 3560 3555 3550 3561 3562 3559 3550 3548 3551 3545 3565 3548 3533 3549 3575 3556 3531 3552 3564 3549 3559 3542 3528 3558 3571 3559 3575 3531 3571 3551 3575 3547 3554 3562 3565 3556 3538 3553 3549 3554 3545 3556 3553 3549 3557 3557 3550 3555 3566 3556 3559 3529 3570 3566 3546 3558 3555 3572 3561 3562 3554 3555 3540 3582 3570 3568 3548 3560 3556 3569 3554 3563 3578 3574 3558 3539 3556 3559 3545 3560 3544 3558 3572 3569 3548 3562 3566 3556 3564 3565 3553 3579 3567 3566 3553 3564 3564 3565 3561 3567 3560 3573 3574 3567 3564 3577 3569 3563 3579 3564 3585 3570 3563 3557 3568 3561 3567 3574 3547 3571 3569 3572 3574 3575 3559 3560 3572 3565 3570 3533 3556 3560 3574 3561 3565 3555 3569 3570 3583 3573 3574 3575 3548 3563 3559 3552 3555 3574 3573 3582 3579 3559 3569 3562 3579 3562 3570 3546 3573 3568 3559 3574 3582 3569 3570 3568 3571 3585 3570 3567 3578 3571 3567 3571 3561 3589 3585 3576 3593 3559 3565 3585 3576 3587 3550 3575 3578 3556 3589 3586 3590 3579 3608 3580 3571 3581 3594 3578 3586 3593 3584 3585 3574 3575 3594 3577 3585 3580 3595 3586 3577 3586 3590 3587 3596 3577 3580 3596 3594 3585 3572 3600 3580 3579 3608 3600 3607 3591 3574 3579 3582 3600 3598 3590 3584 3580 3577 3589 3582 3593 3588 3597 3605

Tree=0
num_leaves=31
num_cat=0
split_feature=68 4 68 33 4 37 27 4 44 37 25 35 49 48 70 71 66 23 66 25 43 66 27 33 19 37 22 50 23 68
split_gain=72.6696 15.0428 14.7401 12.527 13.4205 11.0193 10.8725 10.5877 10.5224 10.0152 8.82001 8.5081 8.48793 8.24695 10.5484 9.88489 8.79386 8.47583 8.34608 8.41689 8.21926 7.81639 7.53187 7.38786 11.7079 7.71332 7.63424 7.29631 7.13248 7.10772
threshold=0.34072234109915567 0.32672925438322714 1.3321901536121505 0.55360101995745437 0.59182159522268651 -0.3710859010045599 0.038784103330965956 1.0336421632884518 0.49248450385833897 1.3765901194081505 -0.019792594181045581 0.81059937731916276 -0.058494472144613278 1.0623783618463907 -0.086909709191437159 -0.038322689029529934 -1.1521515760705849 0.22116108725410705 1.2512601125511489 0.20006853339697353 -1.1353518972888039 -0.62089703294747145 1.4958247239686131 0.575284472209449 1.0087038355182338 1.4006255716400335 -0.38699856398618687 0.4297599743322385 -1.0861893199905084 1.131976050512377
decision_type=2 2 2 2 2 2 2 2 2 2 2 2 2 2 2 2 2 2 2 2 2 2 2 2 2 2 2 2 2 2
left_child=1 5 6 7 -5 -1 13 -3 11 28 -9 -7 -4 14 16 18 -2 -15 19 -16 -6 -13 23 25 26 29 -25 -12 -10 -8
right_child=2 3 12 4 20 8 22 10 9 -11 27 21 -14 17 15 -17 -18 -19 -20 -21 -22 -23 -24 24 -26 -27 -28 -29 -30 -31
leaf_value=-0.015546279878182254 -0.02 -0.014608477279341985 -0.010666740941781369 0.01275393313569621 0.0096827277102762063 -0.0060026001638770754 0.012570919015065905 -0.015190987295570384 0.0087340632067704014 0.012532443661059489 0.0068931476366473725 0.015668325212244032 0.013540205149933007 -0.0092472535090609362 -0.019999999999999983 -0.017686187135393043 0.0083895450933460358 0.015865457535444726 0.013992773356239012 0.0036440318624434034 -0.0095010688162183981 -0.010605597108519818 -0.012947940372509067 -0.014200980826740451 -0.02 -0.010216458884647702 0.0088840798200015576 -0.019999999999999969 -0.017340251737695104 -0.009435103698666238
leaf_weight=20.842515419004485 1.256905059213749 10.096757199731657 1.536520004505294 9.2004836553242075 3.1915373004740104 10.958473244216298 27.563960457569927 3.2740240429993728 1.1484305374324328 1.4572159996023391 8.6699872716562769 4.3843620542902499 25.289265485829674 1.8614835555199523 2.9352160189300793 6.8523368054302365 8.2709544989047625 4.8344487776048481 2.4577952139079571 3.0912075655069202 7.439258433529174 1.526519504841416 1.8805456338450302 1.6875963818747539 2.1679431771626687 1.7500818844418962 9.47806157695595 1.14168034400791 12.128695286111903 1.5502840161789198
leaf_count=2115 111 1015 95 204 131 765 912 319 90 40 490 100 561 125 349 654 399 132 43 209 644 74 160 160 221 130 349 136 1243 88
internal_value=0 -0.630692 0.576328 -0.192357 0.391121 -0.990193 0.355526 -0.691489 -0.61795 -1.23536 -0.0978608 -0.0786834 1.21537 -0.0966454 -0.361918 -0.875296 0.464443 0.888407 -0.153797 -0.787198 -0.374178 0.888293 0.66523 0.748626 0.126593 1.01735 0.539496 0.376388 -1.50849 1.13991
internal_weight=0 95.4599 104.465 43.0137 19.8313 52.4462 77.6388 23.1824 31.6037 14.7343 13.0857 16.8694 26.8258 31.5603 24.8644 15.3366 9.52786 6.69593 8.48422 6.02642 10.6308 5.91088 46.0785 44.1979 13.3336 30.8643 11.1657 9.81167 13.2771 29.1142
internal_count=12064 7366 4698 2939 979 4427 4042 1960 2312 1373 945 939 656 2022 1765 1255 510 257 601 558 775 174 2020 1860 730 1130 509 626 1333 1000
shrinkage=0.01


Tree=1
num_leaves=31
num_cat=0
split_feature=68 2 64 24 60 23 20 70 66 37 67 54 31 35 70 24 61 25 35 67 9 26 52 36 6 18 41 4 24 29
split_gain=223.347 48.9589 48.0455 47.3808 40.6159 59.178 39.2069 39.1249 36.6825 42.5549 34.7031 33.7121 33.2285 47.7247 53.3743 33.1973 32.6546 32.1988 32.1871 32.1152 30.0699 29.3558 28.5689 28.6741 27.7649 27.5992 27.4004 28.022 27.1816 26.6704
threshold=0.23804555213051429 1.0000000180025095e-35 0.58518596959460722 -0.054017739033652035 -0.33390253260466496 -0.30106565113773937 1.1337661578508962 1.5959084543078996 -0.26003584625945919 1.3765901194081505 -0.35658482329278252 1.0878482954032054 -0.05266223800574029 0.30111703622649583 0.30213203990193421 0.24990673686025935 1.7153678907954217 -0.36028648265145446 -0.558162595149852 1.399232832603799 1.0000000180025095e-35 -0.13924901806393028 0.61171422195058056 1.2329783079255872 1.9659916908291131 -0.63510341728278008 -0.52995407215864698 0.85691393606214561 0.65967241074150829 -0.73019572288035628
decision_type=2 2 2 2 2 2 2 2 2 2 2 2 2 2 2 2 2 2 2 2 2 2 2 2 2 2 2 2 2 2
left_child=2 4 6 12 5 25 8 10 20 -10 -5 18 13 14 -3 -12 -14 -7 -9 24 28 -17 29 -24 -6 -2 -16 -28 -1 -4
right_child=1 3 22 7 19 17 -8 11 9 -11 15 -13 16 -15 26 21 -18 -19 -20 -21 -22 -23 23 -25 -26 -27 27 -29 -30 -31
leaf_value=0.0012336535775472315 -0.0054124055208919896 -0.018541852072779461 -0.015526774324867595 -0.016122349129087516 0.010504241937878101 0.0098317088600324547 -0.018002849516787458 0.015556500157814892 -0.014240580866547186 0.011888750018080938 -0.01240504532681942 0.012506584810844113 0.010166615394424029 -0.01991347298463176 -0.019909571793813554 -0.012980935752812931 -0.019968948244484561 -0.019401409201554382 -0.019954113601807315 -0.019894646420235133 -0.013422332454229869 0.0059047158947076539 -0.018201016228759418 0.010478353533670643 -0.0056282689892181922 0.014808413089444722 0.014138575755862868 -0.019920773222456657 -0.019821733245309586 0.0055308523773895425
leaf_weight=76.239124530460685 9.9961570985615271 8.8388631679117662 6.7601434513926497 26.988103924319148 189.92913331463933 4.7964311763644245 40.586611086502671 3.8045598492026329 76.841224690899253 6.7831584885716429 24.354669312015176 24.086805243045092 83.491823606193066 10.775195877999066 3.0365570038557044 10.461646497249601 3.7575436681509009 17.56922634318471 7.756081920117138 3.7611756380647412 22.821396064013243 38.593836294487119 13.831061560660602 4.6610210649669161 11.303116753697394 20.785125728696585 30.777853671461344 2.6213399209082118 6.6674356050789347 54.540365133434534
leaf_count=1261 150 203 209 541 1381 53 1112 23 2143 28 394 143 564 240 52 193 44 402 109 120 565 325 377 44 87 99 242 49 223 688
internal_value=0 0.389765 -0.676369 0.0996363 0.703725 -0.0752991 -0.90838 -0.323042 -0.717205 -1.21211 -0.64259 0.576938 0.50092 -0.0998774 0.350286 -0.286115 0.886878 -1.31322 -0.826772 0.905696 -0.325764 0.187713 -0.00778025 -1.09722 0.959809 0.824174 0.885063 1.14654 -0.0459643 0.320864
internal_weight=0 537.485 309.732 279.345 258.14 53.1469 229.939 136.046 189.352 83.6244 100.398 35.6474 143.299 56.0498 45.2746 73.4102 87.2494 22.3657 11.5606 204.993 105.728 49.0555 79.7926 18.4921 201.232 30.7813 36.4358 33.3992 82.9066 61.3005
internal_count=12064 5414 6650 3122 2292 704 5332 1728 4220 2171 1453 275 1394 786 546 912 608 455 132 1588 2049 518 1318 421 1468 249 343 291 1484 897
shrinkage=0.01


Tree=2
num_leaves=31
num_cat=0
split_feature=68 68 36 63 27 56 26 8 25 23 43 48 66 32 71 39 49 6 65 61 37 22 54 6 32 40 60 70 4 44
split_gain=230.698 57.6292 38.6589 34.1483 32.6728 42.0141 37.5569 46.614 41.9318 38.8912 36.7704 34.2356 35.5631 49.779 45.7606 30.6731 29.6362 29.6166 29.4346 29.1226 32.1837 30.9738 28.0777 28.0093 28.1349 27.1263 25.6438 25.5569 24.9603 24.3426
threshold=0.20990805447297123 1.3321901536121505 0.66324892244999056 0.84451022580297663 -0.017849574317076341 0.37488703237478666 0.268643364132719 1.0000000180025095e-35 -0.37779757690296784 -0.43296000668445062 0.84483894902715129 1.0623783618463907 0.75467334512608886 0.62140468462034815 0.045789832094293492 1.8325309644599534 -0.12918735533005779 -0.68634276275534378 -0.24192934642421579 0.29007419941959139 0.13887389456493723 0.30429137969346171 2.2260016165839951 0.3745910186784388 0.57255570288237123 0.24948501044539056 1.4041754308988945 0.0079128510338943251 -0.20345542729569124 0.75408251760064449
decision_type=2 2 2 2 2 2 2 2 2 2 2 2 2 2 2 2 2 2 2 2 2 2 2 2 2 2 2 2 2 2
left_child=2 4 28 19 5 11 8 9 -6 17 18 12 13 -2 -14 22 -3 -8 -9 20 -4 -22 23 -10 -25 -15 -11 -18 -1 -5
right_child=1 16 3 29 6 -7 7 10 15 26 -12 -13 14 25 -16 -17 27 -19 -20 -21 21 -23 -24 24 -26 -27 -28 -29 -30 -31
leaf_value=-0.014183317247955431 -0.014592124303752119 -0.019795190226406405 -0.0081620116298026964 0.01142425172763087 -0.019735781147076668 -0.018116197727770966 -0.011801826499928619 -0.019861783001530443 0.011835202008743925 -0.01885873774263 -0.019818373210504496 0.0093823766308809287 0.013111199792076872 0.0071567353041469507 -0.013390271689493052 -0.019868892435616136 -0.00022951638117348484 0.010275359046295339 0.011112804892352342 -0.01966387660784932 0.010839695406694208 -0.019641771053832583 -0.019883694457540242 0.0058512688281477611 -0.019759194152906022 -0.019692944923313967 0.0039960957194241607 0.01228340805286654 -0.0067408903164135016 -0.019600339595137368
leaf_weight=79.626881980337203 37.748971726745367 3.3337494395673266 43.860421556979418 22.022922798991207 5.5163884796202174 14.267836920917032 9.5183718279004115 3.2912282645702353 115.10961402393878 24.50832538492978 4.8679441893473259 29.7115333750844 23.361748088151217 23.928723365068439 9.035576007794587 3.75375872850418 19.203528933227062 16.803676553070545 45.220547623932362 12.357240423560141 21.150057628750805 3.9574498273432246 3.2682685293257228 18.988850621506575 5.5413059294223777 4.4649323448538771 6.139134917408227 108.80339591577649 103.81464303098619 2.857134534046053
leaf_count=2321 895 66 1032 187 182 405 130 85 638 516 119 240 165 251 225 79 144 128 291 349 186 109 56 211 160 126 48 446 2166 108
internal_value=0 0.388345 -0.719163 -0.239025 0.201694 -0.183776 0.410956 -0.0332138 0.733038 -0.662344 0.638225 -0.00268012 -0.286383 -0.706827 0.571997 0.834842 0.963964 0.229198 0.901137 -0.55266 -0.299357 0.60352 0.90896 0.976772 0.00659242 0.293459 -1.42806 1.04062 -0.997144 0.78615
internal_weight=0 536.387 289.647 106.205 405.047 142.519 262.527 110.349 152.178 56.9695 53.3797 128.251 98.54 66.1426 32.3973 146.662 131.341 26.322 48.5118 81.3252 68.9679 25.1075 142.908 139.64 24.5302 28.3937 30.6475 128.007 183.442 24.8801
internal_count=12064 5606 6458 1971 4950 2307 2643 1317 1326 822 495 1902 1662 1272 390 1144 656 258 376 1676 1327 295 1065 1009 371 377 564 590 4487 295
shrinkage=0.01


Tree=3
num_leaves=31
num_cat=0
split_feature=68 64 68 66 27 56 42 26 26 3 47 4 25 40 40 49 6 33 25 29 49 32 19 23 42 68 49 30 22 50
split_gain=212.865 42.5554 42.039 29.177 28.682 32.8141 28.4743 28.0306 31.6283 34.606 42.2501 29.7891 28.4608 25.6779 25.3207 23.6757 23.2142 30.9413 26.9912 26.4258 23.775 23.172 46.8513 24.9505 39.2544 34.3711 22.9887 22.5441 27.0632 22.0956
threshold=0.20990805447297123 0.58518596959460722 1.3321901536121505 -1.434088055049241 -0.017849574317076341 0.37488703237478666 0.77108178075700862 -0.81360091761789144 0.268643364132719 1.0000000180025095e-35 0.43602975328734256 1.0000000180025095e-35 -0.37779757690296784 -0.19663596094923522 -0.39282570086384583 0.093330539779459529 0.90505790939533026 0.63503640839461772 4.2264528049616148 0.84424776294146742 -0.18043084882123978 0.54786777374515028 -0.21231772844001759 -0.094083366334550209 1.6561843695573637 0.39594915404606451 -0.12918735533005779 0.58587073031679704 0.95586494443941017 0.42984869382017837
decision_type=2 2 2 2 2 2 2 2 2 2 2 2 2 2 2 2 2 2 2 2 2 2 2 2 2 2 2 2 2 2
left_child=1 3 4 -1 5 21 29 -6 12 13 14 -12 -9 -10 -11 -13 17 18 19 -5 -21 22 23 24 -2 -25 -4 28 -19 -3
right_child=2 6 26 16 7 -7 -8 8 9 10 11 15 -14 -15 -16 -17 -18 27 -20 20 -22 -23 -24 25 -26 -27 -28 -29 -30 -31
leaf_value=0.0064603880615994279 -0.019585743967214214 0.005454002923285615 -0.01948598697593595 -0.014381618267707071 -0.019637068597667586 -0.017497029611182231 -0.014991052352410833 -0.019445979306673689 -0.019670082226864984 -0.0017130300497882206 -0.019675417326370372 -0.00601711781427384 0.0083461759517494457 0.01334273031554351 -0.018949279733219131 0.011932639215320531 -0.017755042265389893 -0.013639537559586988 0.015386041915274611 -0.019453488813675663 0.01007795735521079 0.0049657923631554312 -0.019589136740175046 -0.019506713679124352 0.01216760526398823 0.0089363164329334978 0.0094342423689232607 0.0064849761750890942 0.0074507291959579718 -0.008633641258673018
leaf_weight=10.954833067953585 11.996503226459028 47.405603023245931 2.8106530643999568 93.578716776333749 4.8568172976374617 11.798005178570746 11.495435882359741 3.7832848951220504 2.6104348525404957 15.388830807060002 4.791505627334117 10.245925623923538 141.40942621789873 24.183196365833282 19.102987363934517 25.983104061335325 34.458245869725943 20.907177601009611 3.5773669257760039 3.9449159242212763 8.824066109955309 52.71211213991046 14.831558503210543 4.9009462743997565 5.763715796172618 31.91658702865243 124.4822587929666 18.915489047765732 8.5818131789565069 14.550703713670371
leaf_count=104 362 600 66 2743 122 405 323 140 63 232 103 135 1064 105 508 171 1155 625 21 132 95 632 443 133 28 304 590 236 81 343
internal_value=0 -0.706213 0.381173 -0.941471 0.216932 -0.157128 -0.053646 0.415437 0.462125 0.0362581 -0.310185 0.375717 0.7622 1.01264 -1.12592 0.685627 -1.03168 -0.869795 -1.16314 -1.25403 0.0954358 -0.00327091 -0.382876 0.0454133 -0.928084 0.515014 0.879568 -0.203611 -0.75019 0.214546
internal_weight=0 277.194 513.568 203.743 386.275 133.919 73.4517 252.356 247.499 102.306 75.5124 41.0205 145.193 26.7936 34.4918 36.229 192.788 158.33 109.925 106.348 12.769 122.121 69.4093 54.5778 17.7602 36.8175 127.293 48.4045 29.489 61.9563
internal_count=12064 6458 5606 5192 4950 2307 1266 2643 2521 1317 1149 409 1204 168 740 306 5088 3933 2991 2970 227 1902 1270 827 390 437 656 942 706 943
shrinkage=0.01


Tree=4
num_leaves=31
num_cat=0
split_feature=68 64 66 49 25 33 2 24 29 71 66 38 22 36 42 29 65 21 16 66 44 42 42 4 67 51 24 41 51 20
split_gain=180.966 36 35.9789 38.0212 31.0295 38.2995 33.8518 33.9132 35.0518 30.9369 34.94 32.9582 26.6256 26.3088 26.2028 37.0155 23.9662 23.957 31.6716 23.4774 23.3243 22.7659 22.3994 31.4087 21.6518 21.6384 21.2229 33.2757 21.5 21.2081
threshold=0.20990805447297123 1.9819705355788415 -0.24682731025106305 0.212449545100794 0.53161191789229345 0.55676226248289906 1.0000000180025095e-35 -0.0034163694779538352 0.1868280948581573 2.1746155548895669 -0.98865889237479321 2.072148290493355 2.4554710938818585 1.1582749445416816 -0.40905500431013098 0.58551912157978159 -0.30769521048076903 1.0000000180025095e-35 0.15453172108496993 -0.71299785739732113 -1.0618974110418657 1.1251228162771507 -0.52706868281684482 0.32672925438322714 1.399232832603799 1.0278093508382515 -0.37396598195353553 -0.13018396171203434 0.3786493434002669 0.3423216914319403
decision_type=2 2 2 2 2 2 2 2 2 2 2 2 2 2 2 2 2 2 2 2 2 2 2 2 2 2 2 2 2 2
left_child=1 2 3 14 6 16 20 12 9 10 -9 13 17 -12 15 -1 -6 26 -19 -16 -2 -11 23 -4 -22 -5 27 -8 -29 -18
right_child=4 -3 22 25 5 -7 7 8 -10 21 11 -13 -14 -15 19 -17 29 18 -20 -21 24 -23 -24 -25 -26 -27 -28 28 -30 -31
leaf_value=-0.0072007970464966651 -0.0098800315272642696 0.011409168549837832 -0.014895469062569737 0.014236844865432724 -0.019423081179968747 -0.017516436488215128 -0.013152303482775265 0.01253395936024667 -0.01199995804215013 0.014420099709626811 -0.019545553443912754 0.013661973952572751 -0.015136793811310169 0.0023129740330999028 -0.013956900556637291 0.0096414357930432824 -0.0037711708373361144 -0.019672515748453544 0.011945421178850096 -0.0025212192321741084 0.0082779189680636453 -0.019740360924256295 -0.016280655184083528 0.0013590138150562376 -0.019330420932502111 -0.019642631219548838 0.010569072148356699 -0.0068481325387779301 0.014113134574753826 0.010488108137660187
leaf_weight=34.657761175185442 7.6489008627831927 10.547052538022397 24.29870118573308 14.613336466252806 5.0209998227655879 14.221969705075024 11.112031903117893 10.103757373988627 29.00867778621614 19.43713186681271 19.259903848171238 5.4516926482319823 6.2248792424798003 7.7107638381421557 49.932694317772985 20.929509200155735 19.910141486674547 7.7329688705503923 5.3669086322188377 28.030541962012649 206.6074149645865 2.1685685887932769 55.851903486996889 23.27472921833396 2.8802230712026349 2.1643934398889533 75.179845452308655 6.9712542593479183 16.41659901291132 21.907467260956764
leaf_count=825 157 118 791 103 151 372 175 66 533 75 491 37 173 94 1429 214 359 246 58 568 1576 22 1977 391 113 42 474 149 124 161
internal_value=0 -0.669351 -0.744593 -0.432265 0.353578 -0.314373 0.446424 0.171971 -0.287861 0.124723 -0.370336 -0.876339 0.503967 -1.32963 -0.610518 -0.0859423 0.122036 0.606261 -0.671892 -0.984537 0.727207 1.09914 -1.19856 -0.694316 0.789833 0.986626 0.758921 0.109568 0.786518 0.3699
internal_weight=0 264.301 253.754 150.328 500.342 61.0606 439.282 222.145 93.1405 64.1318 42.5261 32.4224 129.004 26.9707 133.551 55.5873 46.8386 122.78 13.0999 77.9632 217.137 21.6057 103.425 47.5734 209.488 16.7777 109.68 34.4999 23.3879 41.8176
internal_count=12064 6458 6340 3181 5606 1043 4563 2717 1318 785 688 622 1399 585 3036 1039 671 1226 304 1997 1846 97 3159 1182 1689 145 922 448 273 520
shrinkage=0.01


Tree=5
num_leaves=31
num_cat=0
split_feature=68 36 68 63 61 37 49 27 61 56 29 20 25 22 36 2 66 36 37 51 60 61 59 8 21 34 24 49 32 52
split_gain=178.304 41.4833 37.4553 35.989 24.9288 28.0246 24.1642 24.0681 27.3657 27.0224 22.9911 28.2519 24.4823 22.9849 22.0883 25.4195 22.0008 39.5799 34.086 28.1223 25.2692 21.5393 20.8269 20.7202 40.2393 25.0567 24.0232 25.5273 24.1899 31.9809
threshold=0.23804555213051429 0.66324892244999056 1.3321901536121505 0.84451022580297663 0.29007419941959139 0.13887389456493723 -0.058494472144613278 -0.017849574317076341 1.9065960226662597 0.37488703237478666 0.59287633413035057 -0.06558588077197948 4.2264528049616148 0.30429137969346171 0.68973747830848575 1.0000000180025095e-35 0.75467334512608886 0.025381953925625797 0.69359259818489771 1.703703385983373 -0.57882510687918676 1.4444883927591754 2.0582956507297707 1.0000000180025095e-35 1.8991803392103535 1.4371836441671422 0.45863738627751555 0.036343419660580786 0.49425181382010841 0.03155490207828867
decision_type=2 2 2 2 2 2 2 2 2 2 2 2 2 2 2 2 2 2 2 2 2 2 2 2 2 2 2 2 2 2
left_child=1 10 7 4 5 14 -4 9 23 16 12 -12 22 -7 -3 -16 17 -2 -18 -20 -19 -5 -1 26 25 -25 27 -9 -29 -30
right_child=2 3 6 21 -6 13 -8 8 -10 -11 11 -13 -14 -15 15 -17 18 20 19 -21 -22 -23 -24 24 -26 -27 -28 28 29 -31
leaf_value=-0.013154763626659488 -0.014038319118478594 0.01125504723322778 -0.010647222294203056 0.011410251222788093 -0.019090775676687575 0.0098691143210466233 0.0096485370680934289 -0.0031142449217462891 -0.01745786113238498 -0.017084892191686442 0.0036327040937189463 -0.014568898654616264 0.014165109554559227 -0.019082127949979003 -0.0019575801272530115 -0.019198767006399706 0.012224118472730892 -0.017467430477114881 -0.019434218269819607 0.0083500593616093639 0.0046481391861777016 -0.019574678755838838 0.0059168808819751156 0.010235445464074851 -0.019532459890075033 -0.014688096191562992 -0.01203333253726952 0.010073564547211767 0.0091370141625087414 -0.019594467223898557
leaf_weight=120.98847584426403 23.693788576871157 5.285198673605918 6.1913501508533946 24.20079364255071 10.749010141938923 20.482008017599586 111.72656645998359 40.845280259847641 5.810179414227604 10.209865370765327 24.674069043248892 13.031428735703228 3.6077967360615721 3.1661607306450597 16.843883080407977 17.36938941013068 27.361277174204588 5.9187208712100974 7.9291877411305887 6.7391410619020462 40.651082381606102 2.4727604463696471 6.0104127228260031 95.491703037172556 5.131274238228797 4.2116172052919856 11.517212517559527 53.235658805817366 8.4165026023983938 7.1783314496278754
leaf_count=3718 702 44 95 249 360 193 561 632 112 392 448 363 25 113 309 702 248 151 222 41 453 57 69 638 150 117 264 416 102 118
internal_value=0 -0.65004 0.370102 -0.141902 -0.501307 -0.261671 0.85829 0.207642 0.397091 -0.150891 -0.953661 -0.265797 -1.15224 0.599295 -0.777141 -1.07106 -0.00927195 -0.35161 0.563037 -0.666915 0.183739 0.853781 -1.22522 0.452175 0.777714 0.918264 0.170576 0.314852 0.686497 -0.408814
internal_weight=0 268.881 472.259 100.569 73.8957 63.1466 117.918 354.341 231.838 122.503 168.312 37.7055 130.607 23.6482 39.4985 34.2133 112.293 70.2636 42.0296 14.6683 46.5698 26.6736 126.999 226.028 104.835 99.7033 121.193 109.676 68.8305 15.5948
internal_count=12064 6650 5414 2027 1721 1361 656 4758 2549 2209 4623 811 3812 306 1055 1011 1817 1306 511 263 604 306 3787 2437 905 755 1532 1268 636 220
shrinkage=0.01


Tree=6
num_leaves=31
num_cat=0
split_feature=68 36 63 68 29 42 28 25 45 61 37 52 6 62 38 41 33 52 66 45 45 60 43 40 23 56 22 24 27 23
split_gain=153.28 36.8581 34.7133 29.685 25.6417 30.2854 27.1046 24.8108 22.9293 22.674 23.4416 21.2957 54.7446 37.6872 35.48 36.4654 27.1646 26.7818 27.5404 28.6362 27.1302 26.1622 31.9286 23.3723 22.1389 20.1888 20.1679 19.9042 28.8711 28.7945
threshold=0.23804555213051429 0.66324892244999056 0.84451022580297663 1.3321901536121505 0.59287633413035057 -0.29104132580341696 1.0000000180025095e-35 4.2264528049616148 -0.19737443490198273 0.29007419941959139 0.13887389456493723 1.1889653071116923 0.3745910186784388 -0.14019974311647201 0.41031087786192866 -0.13018396171203434 1.2671958643983612 0.23485994129454926 0.80280669531376836 -0.31839961777773546 -0.084438886061900434 -0.72320853317792777 1.7075463429947424 -1.0000000180025095e-35 -0.24390251259450621 -1.0000000180025095e-35 0.30429137969346171 -0.20107796930490016 0.28278473295188616 0.27324107619209176
decision_type=2 2 2 2 2 2 2 2 2 2 2 2 2 2 2 2 2 2 2 2 2 2 2 2 2 2 2 2 2 2
left_child=1 4 9 11 7 8 -7 -1 -6 10 -3 12 14 -13 21 24 -15 18 19 -14 -21 22 -2 -20 -16 -26 -12 -5 29 -29
right_child=3 2 -4 27 5 6 -8 -9 -10 -11 26 13 17 16 15 -17 -18 -19 23 20 -22 -23 -24 -25 25 -27 -28 28 -30 -31
leaf_value=-0.011969291925988034 -0.011492124430101313 -0.0074201345633721407 0.0084280396615416062 0.012093215086064677 0.010863324827834678 0.010504846891462827 -0.019038717013079784 0.014280117885972511 -0.019196455839496966 -0.018841850360076802 0.0087731409383609762 -0.019512047196506021 -0.019360299205664854 0.0094067852593825319 -0.019330976704459719 -0.015544401749988982 -0.019313945872681048 -0.019347948024723217 0.013351786674849198 0.006920577522832214 -0.014387126756828777 0.0070190151131765246 0.013565222771143642 -0.019414241305978578 0.015439727803300583 -0.019790651940725611 -0.018849115015381352 0.011097425930470264 -0.010276507044897526 -0.0075886862973795982
leaf_weight=122.07437269948423 17.447839682921771 38.973576840013266 26.737270336598158 56.203983724117279 17.355849426239732 4.1283051297068623 12.532842885702847 3.7102694138884535 2.9721340909600249 10.050868805497883 20.52272475883365 5.2626651898026457 14.690728865563864 74.495583388954401 3.0599424540996578 18.354177236557007 3.4454713538289061 14.154448334127663 12.405779138207434 14.70448829233646 10.06630555540324 135.00693179666996 7.1769527271389952 2.6402981355786315 11.53943382576108 1.8934878557920427 3.0340510122477999 39.352475751191378 11.698398936539887 10.43280093744397
leaf_count=3787 360 1055 306 232 219 46 479 25 67 360 193 154 411 685 74 444 91 407 77 178 269 1394 57 69 56 32 113 171 128 125
internal_value=0 -0.611341 -0.131258 0.345295 -0.90427 -0.172359 -1.17184 -1.1195 0.646831 -0.490081 -0.265998 0.197858 0.0584241 0.638833 0.329443 -0.584738 0.813715 -0.70921 -0.390952 -0.829868 -0.17384 0.529005 -0.41891 0.760198 0.4944 1.04737 0.521547 0.779188 0.385991 0.718164
internal_weight=0 262.092 99.3185 464.032 162.774 36.9891 16.6611 125.785 20.328 72.5812 62.5304 346.345 263.141 83.2037 194.479 34.847 77.9411 68.662 54.5076 39.4615 24.7708 159.632 24.6248 15.0461 16.4929 13.4329 23.5568 117.688 61.4837 49.7853
internal_count=12064 6650 2027 5414 4623 811 525 3812 286 1721 1361 4758 3828 930 2417 606 776 1411 1004 858 447 1811 417 146 162 88 306 656 424 296
shrinkage=0.01


Tree=7
num_leaves=31
num_cat=0
split_feature=68 36 63 29 42 28 68 25 27 56 66 36 37 51 61 61 37 69 71 47 37 37 55 60 66 36 2 42 26 49
split_gain=152.883 34.0127 33.3707 24.688 27.9528 24.9282 23.9256 23.1764 21.9533 22.7202 21.7366 34.7009 23.8541 28.2848 20.8995 20.5625 22.2117 22.8692 20.519 28.1027 29.7063 24.9289 23.0073 20.5098 24.9558 19.5761 21.822 19.1467 18.6628 18.2491
threshold=0.23804555213051429 0.66324892244999056 0.84451022580297663 0.59287633413035057 -0.29104132580341696 1.0000000180025095e-35 1.3321901536121505 4.2264528049616148 -0.017849574317076341 0.37488703237478666 0.75467334512608886 0.025381953925625797 0.69359259818489771 1.703703385983373 1.9065960226662597 0.29007419941959139 0.13887389456493723 0.65298430970074495 -0.71862758072575861 0.31847762201663715 0.031293489329084538 0.92427408750079076 -1.0000000180025095e-35 -0.57882510687918676 0.04093768996411716 0.68973747830848575 1.0000000180025095e-35 0.1220065489700818 -0.81360091761789144 -0.12918735533005779
decision_type=2 2 2 2 2 2 2 2 2 2 2 2 2 2 2 2 2 2 2 2 2 2 2 2 2 2 2 2 2 2
left_child=1 3 15 7 -5 -6 8 -1 9 10 11 -2 -12 -14 18 16 25 -18 19 20 22 -22 -10 -13 -25 -3 -27 -4 -20 -8
right_child=6 2 27 4 5 -7 29 -9 14 -11 12 23 13 -15 -16 -17 17 -19 28 -21 21 -23 -24 24 -26 26 -28 -29 -30 -31
leaf_value=-0.011958540926951098 -0.013675370759753643 0.0099144506308025179 0.012280498241555313 0.0061704955175073285 0.0098096112737093583 -0.018796829281458646 -0.018985781937682768 0.012504081168306452 -0.019361149117790816 -0.015570707808956684 0.011082475882732919 -0.016597390850527548 -0.019066785299917673 0.0099193356290522613 -0.016232542227892929 -0.018618997053290016 0.0085988764036392523 -0.019299293861468631 -0.019022411077671626 -0.019429746277453124 0.011895004458316562 -0.019439458436067033 0.012619715331761377 0.0077544985909184681 -0.012314301678366307 -0.0024267668436975314 -0.018850779146212488 -0.0084451328778904072 0.0065195075302042207 0.008020686107799959
leaf_weight=118.72882871516049 22.255995839834213 5.3762601576745501 21.303379915654663 19.930452447384596 4.0804687216877964 12.018549233675001 2.5588337816297999 4.0035315304994574 8.6997413113713229 10.194599110633133 27.714056447148323 5.4976395145058623 7.0033454634249193 6.4826061651110649 4.9716192930936804 9.7426143959164602 20.384575041010979 3.433191029354929 2.9105910882353774 7.3537910655140868 21.76732770353556 2.8742259070277205 3.0340039655566224 32.976130343973637 7.6299059316515914 16.075889214873314 16.284579321742058 5.6367452740669242 166.83043230697513 112.87860721349716
leaf_count=3787 702 44 140 286 46 479 66 25 234 392 248 151 222 41 112 360 208 98 99 158 150 68 23 294 159 309 702 166 1705 590
internal_value=0 -0.616232 -0.153755 -0.902399 -0.174585 -1.15462 0.349117 -1.11606 0.214943 -0.129159 0.00370862 -0.342086 0.577457 -0.513335 0.403587 -0.512024 -0.298371 0.457752 0.450791 -0.160035 0.200412 0.824011 -1.10918 0.152938 0.398356 -0.775602 -1.06917 0.794403 0.608153 0.742205
internal_weight=0 256.999 98.2372 158.762 36.0295 16.099 453.633 122.732 338.196 119.754 109.56 68.3597 41.2 13.486 218.442 71.2971 61.5545 23.8178 213.47 43.7291 36.3753 24.6416 11.7337 46.1037 40.606 37.7367 32.3605 26.9401 169.741 115.437
internal_count=12064 6650 2027 4623 811 525 5414 3812 4758 2209 1817 1306 511 263 2549 1721 1361 306 2437 633 475 218 257 604 453 1055 1011 306 1804 656
shrinkage=0.01


Tree=8
num_leaves=31
num_cat=0
split_feature=68 36 63 29 42 28 36 51 6 36 32 24 32 68 53 22 25 24 52 23 66 22 25 16 31 46 56 45 61 48
split_gain=140.088 34.5708 28.6626 23.4653 23.9648 23.3706 20.4761 20.3362 31.3565 39.1485 42.1795 29.0848 28.72 26.0331 24.3591 25.3184 23.9539 25.149 23.7629 21.8376 21.6006 20.3783 20.2401 19.7899 22.8007 19.5862 19.2988 18.0815 18.0066 17.3902
threshold=0.23804555213051429 0.66324892244999056 0.84451022580297663 0.59287633413035057 -0.29104132580341696 1.0000000180025095e-35 1.1757742989971345 1.3814945238299607 0.3745910186784388 0.52359223858328485 -0.3822951173456331 0.84521076577906851 0.093223501493542735 0.53381894779566907 1.005107991939304 0.12637958096288734 -0.48169673612861375 -0.76770788880881236 -0.18322225194336542 0.73676189554648064 -0.015293530213282036 -0.92474135175073979 4.2264528049616148 -0.33816297586990601 -0.45863021653570973 2.513012599659874 0.025965065311922799 -0.19737443490198273 1.5545322676279649 0.82879763873807411
decision_type=2 2 2 2 2 2 2 2 2 2 2 2 2 2 2 2 2 2 2 2 2 2 2 2 2 2 2 2 2 2
left_child=1 3 6 22 27 -6 23 8 11 10 -10 16 -11 -9 15 -14 17 20 -15 -17 -2 -18 -1 24 -3 -23 28 -5 -4 -8
right_child=7 2 26 4 5 -7 29 13 9 12 -12 -13 14 18 -16 19 21 -19 -20 -21 -22 25 -24 -25 -26 -27 -28 -29 -30 -31
leaf_value=-0.011780715433488331 -0.018830468316469499 -0.011972003557399413 0.012615677005637529 0.0091129525743557094 0.0094527666535198524 -0.018570285515349387 -0.016371841902431284 -0.01924637433106419 0.0034269495685901805 -0.019222410749805088 -0.016777603040595234 -0.012630531333301087 0.010644010046605151 -0.01937901194860139 -0.01172133632839677 -0.019342404064950882 -0.01904459250729372 -0.014286477048159236 0.0098661798719096444 0.012325647643513711 0.0077769253127315321 0.0070178808991638569 0.011421112168292469 -0.018768554738498328 0.0060605303901124178 -0.019387596016453845 -0.019422068671384244 -0.018896359271131643 -0.019287736742156759 0.0035065887177024892
leaf_weight=115.35835928656161 3.632533676922324 9.1442362172529084 22.659172058105476 17.468681838363413 4.0421398356556884 11.283821418881415 19.472131842747334 3.4349275082349768 16.311484962701797 5.4130615256726733 28.187956180423498 9.7859930694103223 42.00230361521244 2.8784886971116057 7.7163842283189288 5.8584705647081119 3.1352053061127654 12.196419233456252 79.881802083924413 3.4656654000282288 19.063052013516426 199.80270503647625 3.8864952176809302 5.2789160292595616 30.06937456689775 2.8491191342473021 2.4290523156523696 2.6550834998488417 1.9189440831542004 5.6859731562435618
leaf_count=3787 150 274 207 219 46 479 755 120 213 198 706 264 330 54 149 153 114 303 549 20 200 1840 25 172 441 51 60 67 39 79
internal_value=0 -0.596943 -0.127771 -0.890096 -0.175783 -1.11794 -0.466862 0.33671 0.232095 -0.215734 -0.937153 0.426905 0.282324 0.772939 0.484439 0.733487 0.495619 -0.270533 0.8849 -0.757178 0.351829 0.625523 -1.10245 -0.0591472 0.185552 0.664664 0.746733 0.541747 1.01248 -1.18791
internal_weight=0 251.352 96.6578 154.695 35.4497 15.326 69.6506 445.616 359.42 108.955 44.4994 250.465 64.4559 86.1952 59.0428 51.3264 240.679 34.892 82.7603 9.32414 22.6956 205.787 119.245 44.4925 39.2136 202.652 27.0072 20.1238 24.5781 25.1581
internal_count=12064 6650 2027 4623 811 525 1721 5414 4691 1769 919 2922 850 723 652 503 2658 653 603 173 350 2005 3812 887 715 1891 306 286 246 834
shrinkage=0.01


Tree=9
num_leaves=31
num_cat=0
split_feature=68 36 63 68 29 20 30 64 66 43 27 48 71 66 32 67 24 44 25 30 35 51 67 33 55 42 49 6 44 61
split_gain=134.553 33.85 29.023 22.4608 21.4171 20.8262 20.807 22.9287 20.8286 19.5384 19.3304 22.1599 25.1595 31.9276 29.4284 23.6736 20.4255 21.5707 18.7423 18.5925 21.0646 18.5679 18.3987 18.0192 22.5096 17.5304 17.1369 16.6777 16.6421 16.3391
threshold=0.23804555213051429 0.66324892244999056 0.84451022580297663 1.3321901536121505 0.59287633413035057 -0.06558588077197948 1.2031792614817232 0.61781608459439574 -1.4177788476321418 -0.70354548177590093 -0.017849574317076341 1.0623783618463907 1.0000000180025095e-35 0.75467334512608886 0.85523750937532705 -0.57905684596973728 -0.87101901831836293 0.93268059497145372 4.2264528049616148 0.68386768141760934 1.1054760865442619 1.2314558596480152 -0.35658482329278252 1.1819981521104921 -1.0000000180025095e-35 0.1220065489700818 -0.058494472144613278 0.3745910186784388 0.77663305749258982 1.9065960226662597
decision_type=2 2 2 2 2 2 2 2 2 2 2 2 2 2 2 2 2 2 2 2 2 2 2 2 2 2 2 2 2 2
left_child=1 4 6 10 18 19 7 8 -3 -9 11 12 13 14 21 -16 17 -14 -1 -6 -21 -2 -11 29 -25 -4 -5 -8 -15 -12
right_child=3 2 25 26 5 -7 27 9 -10 22 23 -13 16 28 15 -17 -18 -19 -20 20 -22 -23 -24 24 -26 -27 -28 -29 -30 -31
leaf_value=-0.01165238837840211 -0.01628175762378898 0.0098453233977058973 0.012104575719455375 -0.010141603508517436 0.01051274985591313 -0.01347069617872979 0.013484804143763015 -0.018756202089169317 -0.013956722527719019 -0.018657783343521427 0.0049686760593650701 0.0071445501983832009 -0.018976885076061222 0.012933983442610313 0.01343748873502747 -0.010188784265646528 -0.017094877304640849 0.013096139971474621 0.010830485625536752 -0.018918325236485324 0.011512914998419655 0.0087550522667905403 0.012780544761260604 -0.016711512305668103 0.010142608217540939 -0.0081416129030457314 0.0080948294311263807 -0.013900986603144714 -0.01954047448618574 -0.01503194968802537
leaf_weight=112.66504402179271 19.720333920791749 4.1092352643609038 20.290402334183458 5.4170813784003249 14.236941102892162 10.83365437760949 9.5282783284783346 3.4897680804133442 34.908800099045038 2.2179430965334186 194.83602654002607 24.409755855798721 3.344283156096937 18.753936707973484 11.220128849148752 6.818281788378953 19.550301782786846 5.6221325993537903 3.8339978754520407 6.0343351513147336 3.6508152261376381 3.4857155792415133 11.584057018160816 8.9081834182143194 4.8050416745245448 5.4187890440225592 105.66041992977262 2.9007226321846238 1.7230486646294583 4.171968273818492
leaf_count=3787 713 48 140 95 145 363 46 117 1262 69 2130 277 82 143 65 129 668 53 25 269 34 45 86 281 42 166 561 93 34 96
internal_value=0 -0.592414 -0.122701 0.331985 -0.885716 -0.196789 -0.461716 -0.720198 -1.145 0.238344 0.200145 -0.130852 -0.35951 -0.00059915 -0.507374 0.450707 -1.13634 0.113358 -1.09125 0.324141 -0.744728 -1.2521 0.772849 0.378538 -0.730197 0.783724 0.720547 0.709341 1.02014 0.454939
internal_weight=0 245.703 94.448 438.447 151.255 34.7557 68.7388 56.3098 39.018 17.2918 327.369 114.648 90.2382 61.7214 41.2445 18.0384 28.5167 8.96642 116.499 23.9221 9.68515 23.206 13.802 212.721 13.7132 25.7092 111.078 12.429 20.477 199.008
internal_count=12064 6650 2027 5414 4623 811 1721 1582 1310 272 4758 2209 1932 1129 952 194 803 135 3812 448 303 758 155 2549 323 306 656 139 177 2226
shrinkage=0.01


Tree=10
num_leaves=31
num_cat=0
split_feature=68 64 68 41 69 6 20 66 66 37 43 61 6 33 52 52 40 51 60 68 65 33 47 67 32 31 19 67 63 40
split_gain=125.83 30.7783 23.5114 31.1112 31.8704 24.8828 22.781 24.5171 22.0683 21.0719 20.5434 20.3641 24.8264 20.0059 17.7541 22.3089 22.9965 18.5481 17.3927 17.8081 17.2687 17.0192 17.4859 16.9626 18.9388 18.0724 16.8473 16.8125 16.8059 15.5131
threshold=0.20990805447297123 0.58518596959460722 0.60457689303662676 0.33621450047568141 0.57481595814623565 0.90505790939533026 1.1337661578508962 -0.26003584625945919 0.80280669531376836 1.3765901194081505 -0.7653241487479473 0.43390063003433132 1.0000000180025095e-35 1.1191740224851026 0.23485994129454926 -0.4376274544056713 -0.2968098208422984 0.075217073911328619 -1.3805796017217451 -0.37790247389980491 0.58571736506579586 0.63503640839461772 -0.38021082886486401 -0.35658482329278252 0.055614552533487717 0.47587735387321245 1.5652083504945955 -0.24249660653536984 0.80346560713895143 0.29706759389459597
decision_type=2 2 2 2 2 2 2 2 2 2 2 2 2 2 2 2 2 2 2 2 2 2 2 2 2 2 2 2 2 2
left_child=1 6 3 4 8 13 7 14 11 21 -3 26 28 -5 15 16 18 -16 19 -1 -10 -9 27 24 -12 -25 -2 -23 -13 -19
right_child=2 10 -4 5 -6 -7 -8 9 20 -11 23 12 -14 -15 17 -17 -18 29 -20 -21 -22 22 -24 25 -26 -27 -28 -29 -30 -31
leaf_value=-0.016201651520470942 -0.019115544003463041 -0.010236115961110324 0.0047079217352524677 0.0071816724509786269 -0.018898137847506716 -0.015325822825736442 -0.016621411142990313 -0.017086048774113002 0.012601359231783696 0.012347497134935581 0.0037214577786495546 0.013518041040012925 -0.018842424239209149 -0.018857945068002497 -0.018518517760993818 -0.018607093845724922 0.0073880539879314765 0.0088066620262657585 -0.018452090769931873 0.0056169077040055457 -0.018873860874830346 -0.0084943388143494582 -0.015657721983926141 0.0096832945526134761 -0.018678560860259121 -0.018566635532404323 0.0037175469679755668 0.016496413398973925 -0.0079155407217084747 -0.01880512133468824
leaf_weight=5.7392123751342323 13.451452322304251 14.864849492907522 300.02135539613664 64.666770309209824 13.441392749547957 5.9557562693953505 27.095892280340195 35.954075671732426 13.302942864596842 3.4940096884965888 9.4376920685172063 11.381196886301046 4.9577790647745124 3.0915125757455817 3.4132583066821125 11.755649438127874 14.05778954178095 22.732082927599553 10.490543223917483 10.743155557662247 2.0059440508484832 5.8363069854676723 9.3051876556128246 29.032842751592401 6.2900812961161128 2.456119490787386 4.2532364912331095 4.9967189393937606 5.3910924680531016 2.23478078842163
leaf_count=205 399 490 3053 743 495 201 1080 1539 82 24 167 87 189 135 141 422 205 330 431 185 46 173 346 297 209 103 75 32 101 79
internal_value=0 -0.599971 0.312164 -0.0232289 -0.510084 0.427109 -0.82248 -0.660839 -0.171314 -1.14794 0.00161993 -0.566908 0.081737 0.59936 -0.303244 -0.646176 -0.298201 0.3346 -0.838671 -0.198038 0.847712 -1.29636 -0.560356 0.324385 -0.523709 0.747982 -1.36303 0.303261 0.662868 0.633513
internal_weight=0 229.93 441.92 141.899 68.185 73.714 167.849 140.753 54.7436 59.5863 62.0816 39.4348 21.7301 67.7583 81.1665 52.7864 41.0307 28.3801 26.9729 16.4824 15.3089 56.0923 20.1382 47.2167 15.7278 31.489 17.7047 10.833 16.7723 24.9669
internal_count=12064 6458 5606 2553 1474 1079 5192 4112 979 2114 1266 851 377 878 1998 1448 1026 550 821 390 128 2090 551 776 376 400 474 205 188 409
shrinkage=0.01


Tree=11
num_leaves=31
num_cat=0
split_feature=68 36 63 29 42 28 61 37 36 2 68 25 35 27 34 40 22 37 25 56 30 65 61 61 52 52 46 52 37 41
split_gain=117.334 31.5089 25.9159 20.2183 19.8704 21.408 19.2027 19.2296 19.1028 19.6744 18.8766 23.6273 29.3098 27.6963 21.5721 17.5152 17.4202 17.1691 16.7126 16.064 15.6909 14.6448 14.267 13.9034 29.2816 29.4281 25.7451 20.3402 20.0135 17.2754
threshold=0.23804555213051429 0.66324892244999056 0.84451022580297663 0.59287633413035057 -0.29104132580341696 1.0000000180025095e-35 0.29007419941959139 0.13887389456493723 0.68973747830848575 1.0000000180025095e-35 2.0239510688847933 0.63434367083450527 -0.68895335466361163 1.2732358023929056 2.4129074728435982 -0.52780870259315982 0.30429137969346171 0.70100545972242012 4.2264528049616148 0.025965065311922799 0.76528496613653008 -0.30769521048076903 1.5545322676279649 1.0067891015585895 0.47516623630910498 1.2072473148323786 -0.31889975149429922 -0.14458595174523561 2.1342922553828569 -0.063555609970932112
decision_type=2 2 2 2 2 2 2 2 2 2 2 2 2 2 2 2 2 2 2 2 2 2 2 2 2 2 2 2 2 2
left_child=1 3 6 18 20 -6 7 8 -3 -10 11 13 17 14 23 -15 -9 21 -1 22 -5 -13 -4 24 -2 -26 -27 -25 -29 -28
right_child=10 2 19 4 5 -7 -8 16 9 -11 -12 12 -14 15 -16 -17 -18 -19 -20 -21 -22 -23 -24 27 25 26 29 28 -30 -31
leaf_value=-0.011368497033424243 0.0044923514349866295 0.010343928715508913 0.012184237655433821 0.010914268648056634 0.0091774679324238585 -0.018081753357565199 -0.018000590203988233 0.0087002846821517751 -0.0018515191296584695 -0.018225570032982332 0.012444787897540199 -0.01870470074051955 -0.015423152490715337 0.010790426517775923 -0.019233836238676767 -0.017284391606181653 -0.018096678381805918 -0.012513698275005022 0.010408403342650824 -0.019078245213661939 -0.0096827866699365737 0.012414896318021269 -0.018849038409463174 -0.0077346886559201003 -0.013216367698446313 -0.018832025149982397 -0.01900592496112128 0.0086203013228386815 -0.019590076653741555 0.010206771666450882
leaf_weight=107.14918493852019 186.14187317527831 5.4718211255967608 21.25993790477515 13.267458494752647 3.9869845807552329 10.386336920782922 8.9356877952814084 18.687541723251346 14.731790002435446 14.621391141787171 20.594828780740499 1.7198141366243387 15.608596565201877 2.8565777502953997 3.991936642676591 10.006187047809361 2.7878545559942713 5.2383279949426642 3.6439841985702506 2.0687237307429305 5.1282107830047599 12.52789421379566 1.5923777595162381 8.8666335605084878 20.814584616571665 4.5997517183423069 2.2571408525109353 111.96251312084496 2.5725885778665534 19.627667263150212
leaf_count=3787 2142 44 207 113 46 479 360 193 309 702 92 52 509 32 108 241 113 123 25 60 173 116 39 155 405 169 62 952 60 196
internal_value=0 -0.570162 -0.106833 -0.861133 -0.171087 -1.05204 -0.43821 -0.222065 -0.681003 -1.00078 0.310344 0.263283 -0.521221 0.336957 0.388357 -1.10495 0.52216 0.29669 -1.06523 0.760617 0.517237 0.865851 1.00218 0.414218 0.270704 -0.431889 0.267376 0.685706 0.798666 0.719385
internal_weight=0 233.719 90.1571 143.562 32.769 14.3733 65.2361 56.3004 34.825 29.3532 429.387 408.792 35.0946 373.697 360.835 12.8628 21.4754 19.486 110.793 24.921 18.3957 14.2477 22.8523 356.843 233.441 47.2991 26.4846 123.402 114.535 21.8848
internal_count=12064 6650 2027 4623 811 525 1721 1361 1055 1011 5414 5322 800 4522 4249 273 306 291 3812 306 286 168 246 4141 2974 832 427 1167 1012 258
shrinkage=0.01


Tree=12
num_leaves=31
num_cat=0
split_feature=68 64 68 20 66 37 43 2 34 44 24 71 18 24 24 32 66 31 65 29 35 48 70 38 51 66 36 49 68 29
split_gain=115.745 27.7732 21.8632 21.5577 23.3421 19.9236 19.4529 16.8132 24.3456 26.3425 22.1664 26.6159 22.797 26.0084 21.3388 26.152 24.3457 22.3484 21.7324 21.3036 20.0083 19.9822 19.8785 19.5067 24.7229 16.7704 16.465 16.3069 15.9826 15.934
threshold=0.20990805447297123 0.58518596959460722 1.3321901536121505 1.1337661578508962 -0.26003584625945919 1.3765901194081505 -0.7653241487479473 1.0000000180025095e-35 0.34024571069147064 -1.0089193734675128 -0.054017739033652035 2.1746155548895669 0.91399322756195633 0.30827752503315625 -0.37396598195353553 -0.9204618653063954 1.5270670342341834 -0.05266223800574029 0.39638999938553848 1.0496366133115262 0.36197141355791368 1.1786594866005273 0.91887742724812671 1.0111113861911103 1.5302407971697105 -1.170933910496269 0.19564137360331665 -0.12918735533005779 0.7878397457951446 0.84424776294146742
decision_type=2 2 2 2 2 2 2 2 2 2 2 2 2 2 2 2 2 2 2 2 2 2 2 2 2 2 2 2 2 2
left_child=1 3 7 4 29 -6 -3 8 9 -2 14 12 -12 -14 15 18 -17 21 -9 23 25 -16 -13 -11 -25 -10 -22 -4 -15 -1
right_child=2 6 27 -5 5 -7 -8 10 20 19 11 22 13 28 17 16 -18 -19 -20 -21 26 -23 -24 24 -26 -27 -28 -29 -30 -31
leaf_value=-0.0049584424805849125 -0.01851221532326627 -0.010059530679631763 -0.018501841921455892 -0.01636514426741548 -0.012777609256671214 0.012118964686915295 0.0031884039761304567 0.012189102443222379 0.0094126885719651981 0.0091642747936848939 -0.012564212538812935 -0.0188998754528449 -0.018676535303423197 0.0085509476200001655 -0.018550554205959042 -0.01725607009941852 0.010272506018326672 0.0099505215183663554 -0.018640273949187436 -0.018786637338021685 -0.018567443726953771 0.011485815328814609 0.011281229576943316 -0.019231636026756229 0.0090032990494452996 -0.014581029056357095 0.0085311211302961133 0.0075480294157680506 -0.018697938973800229 0.0069126141154380186
leaf_weight=65.149833213537931 4.1745452880859366 14.676734037697313 2.459834996610879 25.997007578611374 53.782647430896759 3.4186343625187865 45.275736777111888 12.405149873346089 3.5770295280963209 103.34573370963335 35.852881830185652 2.5705120116472271 5.9105252996087101 17.520575759932402 5.7923285514116269 14.516446471214296 4.125615529716014 43.61417244002223 2.8032346665859214 3.1091433167457572 2.6277683526277569 3.5861465781927109 14.449818622320889 5.7770566120743734 6.6952253505587578 15.693190746009348 15.280087660998104 104.0579137429595 2.4540295451879492 13.681465398520229
leaf_count=1797 140 490 66 1080 2090 24 776 108 36 967 999 72 204 166 189 503 58 340 89 106 118 23 89 164 40 340 144 590 55 201
internal_value=0 -0.586975 0.301337 -0.802134 -0.642677 -1.12897 -0.0054772 0.17278 0.403661 0.617843 -0.0506813 -0.434862 -0.740094 -0.0249406 0.297733 -0.322483 -1.11638 0.693913 0.650658 0.704511 -0.305524 -0.706523 0.67231 0.773857 -0.407489 -1.01272 0.455472 0.694645 0.520322 -0.289818
internal_weight=0 221.982 432.399 162.03 136.033 57.2013 59.9525 325.881 160.28 123.102 165.601 78.7583 61.738 25.8851 86.8431 33.8504 18.6421 52.9926 15.2084 118.927 37.1781 9.37848 17.0203 115.818 12.4723 19.2702 17.9079 106.518 19.9746 78.8313
internal_count=12064 6458 5606 5192 4112 2114 1266 4950 2055 1417 2895 1585 1424 425 1310 758 561 552 197 1277 638 212 161 1171 204 376 262 656 221 1998
shrinkage=0.01


Tree=13
num_leaves=31
num_cat=0
split_feature=68 36 30 60 69 68 56 4 27 48 71 66 67 70 64 24 41 23 66 66 64 17 20 46 49 28 42 24 17 49
split_gain=111.195 27.7184 19.6066 20.2069 20.0758 19.4248 19.3503 17.6687 16.8558 21.9905 23.1903 31.7412 24.2056 28.0393 19.6712 18.3702 18.1549 16.8227 16.4075 32.2475 24.6247 17.3642 16.2594 23.1664 31.4739 24.569 25.31 22.8817 22.391 22.2859
threshold=0.20990805447297123 0.66324892244999056 2.0907624820160478 -0.50212895822350256 0.74491438185031722 1.3321901536121505 0.051963172661707545 -0.20345542729569124 -0.017849574317076341 1.0623783618463907 1.0000000180025095e-35 0.75467334512608886 -0.55281655611553238 1.7595284970249725 -0.80087940028253468 -0.87101901831836293 0.4694712039578855 0.22116108725410705 -1.0300837697685867 -0.48145018338758183 1.0644440054268098 -0.5455601325219116 -0.28885613724489018 0.91694482620186524 -0.12130688182902494 0.32640694933618825 -0.35004816505677394 0.84521076577906851 0.42351178528992678 -0.19926776648174324
decision_type=2 2 2 2 2 2 2 2 2 2 2 2 2 2 2 2 2 2 2 2 2 2 2 2 2 2 2 2 2 2
left_child=1 7 3 -3 6 8 -5 -1 9 10 11 12 14 -14 -2 16 -12 -11 -9 -20 -21 -22 27 25 -25 29 28 -10 -27 -24
right_child=5 2 -4 4 -6 -7 -8 18 22 17 15 -13 13 -15 -16 -17 -18 -19 19 20 21 -23 23 24 -26 26 -28 -29 -30 -31
leaf_value=-0.01265910102476641 -0.018686524285939549 -0.0095706860995825559 0.01279766584533599 0.0064111121050748291 -0.012748006035717517 0.0066993609448304852 -0.018432948857115793 -0.015716700175326587 0.0069551865957958297 -0.006414140363469426 -0.018501427992912104 0.010584441807947036 -0.018495189353036737 0.013975688965635655 0.0071985401711276995 -0.016607341933287771 0.011431392779166662 0.011560894018671967 0.0041633649658809647 -0.015477617549239755 0.012271818061532562 -0.018063526689562483 -0.018539397657137174 0.018304231900221915 -0.019044663040919511 -0.01880119614657946 -0.015408330756811361 -0.018565932818624398 0.012249261089862146 0.0076024261413783654
leaf_weight=59.398074690252542 3.5844683349132564 28.470811305567622 8.8664282336831075 35.014759428799152 8.5580983869731408 105.81679520383477 3.443328443914651 12.793206850066779 105.43746131658554 7.1601954810321358 3.1477554887533206 18.625769592821598 16.275646891444925 3.1787678971886626 16.224206941202283 19.554873032495379 5.687311727553606 19.083022870123386 30.266458446159959 23.911362731829286 6.6745092570781708 2.6306400839239341 3.4669206030666819 2.8320028781890878 11.099029481410977 3.0925413854420212 13.100829865783451 3.6341748461127272 9.3257044926285726 54.921042885631323
leaf_count=2321 121 902 47 595 296 656 131 502 1049 130 93 182 654 21 204 689 54 159 506 962 70 126 132 26 249 102 358 127 60 540
internal_value=0 -0.577103 -0.126968 -0.292197 0.110418 0.298598 0.418671 -0.856967 0.175587 -0.135912 -0.379724 -0.0166577 -0.526669 -1.31896 0.251452 -1.12004 0.0766935 0.665659 -0.538514 -0.33031 -1.01065 0.369577 0.344987 0.049006 -1.14521 0.247281 -0.571229 0.610484 0.45167 0.605019
internal_weight=0 220.028 84.3534 75.487 47.0162 425.249 38.4581 135.674 319.432 112.522 86.2788 57.8889 39.2631 19.4544 19.8087 28.3899 8.83507 26.2432 76.2762 63.483 33.2165 9.30515 206.91 97.8381 13.931 83.907 25.5191 109.072 12.4182 58.388
internal_count=12064 6458 1971 1924 1022 5606 726 4487 4950 2307 2018 1182 1000 675 325 836 147 289 2166 1664 1158 196 2643 1467 275 1192 520 1176 162 672
shrinkage=0.01


Tree=14
num_leaves=31
num_cat=0
split_feature=68 49 21 42 47 35 4 40 17 51 6 36 32 32 30 24 67 53 52 22 56 22 67 31 29 52 62 33 62 49
split_gain=106.519 26.4934 32.9369 25.0328 23.8277 21.4151 19.6655 20.4933 20.2294 17.9524 25.393 31.231 28.0031 24.8429 24.335 44.8359 25.5941 21.8955 21.7353 17.7103 18.4701 17.392 16.9309 15.8658 17.0904 15.1408 14.6953 13.7503 16.957 13.5033
threshold=0.20990805447297123 0.2118234625773957 1.0000000180025095e-35 -0.35004816505677394 -0.73969538516564359 0.35134002856908253 -0.20345542729569124 -0.63260254012124018 -0.35268724576138061 1.3814945238299607 0.3745910186784388 0.52359223858328485 -0.3822951173456331 0.093223501493542735 -0.42492755431757168 -0.16244909462511986 0.67439236213837039 1.005107991939304 1.9609307473882962 0.12637958096288734 0.095243774714261889 -0.92474135175073979 -0.52087185542345671 0.78137540859135612 -0.92638805756220333 -0.18322225194336542 1.972404484777748 1.0895874639194953 0.26887800866640932 -0.49607171404142564
decision_type=2 2 2 2 2 2 2 2 2 2 2 2 2 2 2 2 2 2 2 2 2 2 2 2 2 2 2 2 2 2
left_child=1 3 5 4 -1 -3 7 8 29 10 14 12 22 -13 15 16 -2 19 -18 27 -21 -16 -12 24 -8 -11 -23 -15 -29 -6
right_child=9 2 -4 -5 6 -7 23 -9 -10 25 11 13 -14 17 21 -17 18 -19 -20 20 -22 26 -24 -25 -26 -27 -28 28 -30 -31
leaf_value=-0.017794209130115785 0.0069062884006591864 0.01215736810802244 -0.017775878771229613 -0.010602605213428597 0.013965087669167412 -0.017894151741626667 -0.017809759109858964 -0.016884886333089863 0.0099660419777338593 -0.018644230790404656 0.0093676689430841949 -0.018679819085205909 -0.015862190832150395 0.012395703776510818 -0.018509579967147114 -0.018412981742796944 -0.018861616913333296 -0.011651061459820072 0.014913316898983696 -0.01878425087996247 0.012167880443381194 0.0062458070175319741 -0.011355664758588315 -0.018180566298465064 0.0057332942150131348 0.0078992940507935112 -0.018740237180415745 -0.018735432951861222 0.013420884296731772 -0.017865192230986208
leaf_weight=10.060541875660418 34.651489812880754 20.271347831934698 5.9406634010374537 97.02725101262331 1.6586036309599874 2.6854412183165541 3.3249327689409247 13.630757261067631 8.9497084245085698 2.2093745544552794 9.818951617926361 5.1379384174942961 24.300663761794567 31.977760614827275 2.9651543982326976 12.853086981922386 8.0614745393395406 7.3983236923813811 2.4950859397649756 4.8967769891023618 3.1798725947737694 175.32193453609943 6.5872500129044047 3.4616966135799876 42.440497063100338 78.616214323788881 2.3859140463173381 3.4569106698036185 3.119944304227829 6.7845862936228531
leaf_count=530 419 193 225 3509 20 90 126 559 146 67 60 206 723 225 121 440 223 152 22 150 33 1754 166 134 656 666 61 98 20 270
internal_value=0 -0.570119 0.321108 -0.707593 -0.3287 0.8642 -0.146832 -0.770399 -0.0508956 0.293921 0.192843 -0.230545 -0.904721 0.233284 0.369967 -0.193232 0.275329 0.433104 -1.08788 0.686669 -0.659803 0.550957 0.104705 0.246149 0.402285 0.717372 0.591034 0.968736 -0.348104 -1.16124
internal_weight=0 216.236 28.8975 187.339 90.3113 22.9568 80.2508 31.0237 17.3929 419.434 338.609 99.8744 40.7069 59.1675 238.734 58.0611 45.2081 54.0296 10.5566 46.6313 8.07665 180.673 16.4062 49.2271 45.7654 80.8256 177.708 38.5546 6.57685 8.44319
internal_count=12064 6458 508 5950 2441 283 1911 995 436 5606 4873 1833 949 884 3040 1104 664 678 245 526 183 1936 226 916 782 733 1815 343 118 290
shrinkage=0.01


Tree=15
num_leaves=31
num_cat=0
split_feature=68 36 63 68 61 37 53 37 64 37 17 36 2 42 52 52 6 62 37 66 40 10 38 41 60 43 48 22 49 33
split_gain=104.51 27.639 24.8965 19.7879 17.3327 17.4636 17.1638 21.9682 18.2411 16.9808 18.949 16.806 16.9251 16.394 16.3765 36.0151 33.6348 23.3024 21.6818 18.2564 26.7376 17.2427 16.8872 31.2981 17.3959 24.1069 16.4572 15.8707 15.8332 15.5832
threshold=0.23804555213051429 0.66324892244999056 0.84451022580297663 1.3321901536121505 0.29007419941959139 0.13887389456493723 0.31120786623588703 -0.29100946598351846 -0.75044075709894875 0.64245387095644835 -0.75725110066289381 0.68973747830848575 1.0000000180025095e-35 -0.46806184356348796 1.1889653071116923 0.73190171209125665 0.3745910186784388 -0.14019974311647201 1.690397083921414 0.80280669531376836 -1.0000000180025095e-35 -1.0000000180025095e-35 0.41031087786192866 -0.13018396171203434 -0.72320853317792777 1.7075463429947424 0.039981752380818636 0.30429137969346171 -0.058494472144613278 1.2671958643983612
decision_type=2 2 2 2 2 2 2 2 2 2 2 2 2 2 2 2 2 2 2 2 2 2 2 2 2 2 2 2 2 2
left_child=1 6 4 14 5 11 7 -1 -9 -8 13 -3 -13 -11 15 16 22 -16 29 21 -21 -18 24 -24 25 26 -2 -7 -5 -19
right_child=3 2 -4 28 -6 27 9 8 -10 10 -12 12 -14 -15 17 -17 19 18 -20 20 -22 -23 23 -25 -26 -27 -28 -29 -30 -31
leaf_value=-0.010044945975923319 -0.017444215278757395 0.0097581004526048881 0.0078328852917729768 -0.010236974024224266 -0.01746985599724446 0.0084866220365172572 -0.017702031385631034 -0.015825911641936558 0.00301380795149921 0.013833104472947165 -0.016035027154705946 -0.0020831203373696218 -0.017661389879872039 -0.010911380008759545 -0.0184246793570658 -0.013855998455924019 -0.01374761482543861 0.0091900000794403209 -0.018992405280541604 0.01214440167485123 -0.018288144094071208 0.0010670001821002032 0.0071944594134026327 -0.015317587976375448 0.0066566911209035044 0.013505725022610144 0.0061660038975871667 -0.01753167409803074 0.0077580863836366936 -0.018078639501429732
leaf_weight=48.667908204719424 10.017399910837414 5.2347327433526507 23.16067261248827 5.1502349264919749 8.623876325786112 17.798045273870233 29.947025103494525 6.0998177360743275 32.636985808610916 6.1947537213563919 9.7710147798061353 14.136993978172541 13.764673117548227 4.7156890574842709 3.7582370527088633 16.390161912888288 25.737171974033114 65.125258702784777 3.039482206106185 10.725988268852232 3.9502247944474211 11.308381207287313 12.623088564723732 12.09125806391239 115.9240647284314 5.939518228173255 4.1859207041561595 2.7001045215874901 96.574385434389114 2.1653879806399337
leaf_count=1876 273 44 306 95 360 193 1267 263 676 54 333 309 702 154 154 460 863 623 76 88 129 170 134 340 1244 55 72 113 561 77
internal_value=0 -0.548936 -0.101858 0.303087 -0.43114 -0.219566 -0.825601 -0.557224 0.00471498 -1.28893 -0.59203 -0.668362 -0.976832 0.313809 0.174961 0.0426915 0.152854 0.583604 0.713246 -0.54859 0.395323 -0.922536 0.378502 -0.381934 0.516623 -0.341152 -1.04859 0.505938 0.684701 0.831251
internal_weight=0 223.452 85.4191 404.706 62.2584 53.6345 138.033 87.4047 38.7368 50.6285 20.6815 33.1364 27.9017 10.9104 302.982 228.893 212.503 74.0884 70.3301 51.7218 14.6762 37.0456 160.781 24.7143 136.067 20.1428 14.2033 20.4981 101.725 67.2906
internal_count=12064 6650 2027 5414 1721 1361 4623 2815 939 1808 541 1055 1011 208 4758 3828 3368 930 776 1250 217 1033 2118 474 1644 400 345 306 656 700
shrinkage=0.01


Tree=16
num_leaves=31
num_cat=0
split_feature=68 36 63 29 20 25 61 37 36 2 68 27 56 48 39 35 28 37 35 29 27 61 38 52 35 22 44 42 22 66
split_gain=97.6611 25.811 22.6546 17.1494 17.4601 16.965 16.5367 15.9979 15.8073 16.5206 15.644 15.4966 19.1817 18.5254 24.3846 23.8699 22.0754 16.4349 15.6948 18.6388 17.0699 16.8349 15.6647 15.4925 19.9316 15.2967 22.2113 14.9978 14.8672 14.5023
threshold=0.23804555213051429 0.66324892244999056 0.84451022580297663 0.59287633413035057 -0.06558588077197948 4.2264528049616148 0.29007419941959139 0.13887389456493723 0.68973747830848575 1.0000000180025095e-35 1.3321901536121505 -0.017849574317076341 0.37488703237478666 0.87662009357184767 -0.19171406854039533 0.052919524347706227 -0.36819870048121633 1.5976173583094668 0.38160238956054598 0.3662741875728171 1.4958247239686131 1.8593122360899035 2.072148290493355 1.2844830597196251 2.1569942343930713 0.1783564924781457 0.35126027891056461 0.1220065489700818 0.30429137969346171 -0.09364395374836039
decision_type=2 2 2 2 2 2 2 2 2 2 2 2 2 2 2 2 2 2 2 2 2 2 2 2 2 2 2 2 2 2
left_child=1 3 6 5 -5 -1 7 8 -3 -10 11 12 13 14 25 -16 -17 -15 20 22 21 -13 23 24 -20 29 -27 -4 -9 -2
right_child=10 2 27 4 -6 -7 -8 28 9 -11 -12 18 -14 17 15 16 -18 -19 19 -21 -22 -23 -24 -25 -26 26 -28 -29 -30 -31
leaf_value=-0.010667834338991031 -0.011911039223244654 0.0094294933287801478 0.011711196540904332 0.0035448943624007763 -0.012696091971082082 0.012703488642338414 -0.01727874884221348 0.0081106782702205105 -0.0019639168107415386 -0.017481126982677127 0.0063265097007619746 0.0058669745583720245 -0.014768331593146016 0.0093202148714670793 -0.018277940884723783 0.0086319741913949994 -0.018459497068601269 -0.019031805680287693 -0.018402288350948363 -0.014916350333727178 -0.017963714614796733 -0.018384092481368103 0.01597332592682291 0.011214382136519787 0.0028430830956236801 0.012323105260828424 -0.018150974847672294 -0.0077681323897780645 -0.017360921754062016 0.0060118674977062024
leaf_weight=102.07486300729215 10.525572241283955 5.2594727911055079 18.039387039840225 21.356390461325649 9.5927649196237308 3.2033731266856185 8.3235390167683345 17.780754998326305 14.138919977471232 13.32963377609849 101.97978408262134 147.70509382896125 9.6061327159404737 25.111364975571636 15.283528216183187 9.3109918218106014 4.4430047124624243 2.2257794365286818 8.1188689321279615 8.8817066736519319 3.1942837852984658 2.9190942943096152 6.0357548147439948 6.4774196147918692 9.6817622035741788 18.054901923984293 2.7569434270262709 5.0616129487752906 2.6304921312257639 7.9054005965590468
leaf_count=3787 319 44 140 448 363 25 360 193 309 702 656 1707 392 304 497 143 163 40 241 241 121 84 25 68 62 112 95 166 113 144
internal_value=0 -0.533911 -0.0999495 -0.803295 -0.148904 -0.99567 -0.417268 -0.211979 -0.64529 -0.949394 0.294547 0.178936 -0.129792 0.00553755 -0.272974 -0.967695 -0.0119485 0.70118 0.347242 -0.217655 0.491187 0.539699 0.155611 -0.202815 -0.684693 0.241081 0.828621 0.744312 0.482803 -0.422356
internal_weight=0 220.791 84.5638 136.227 30.9492 105.278 61.4628 53.1393 32.728 27.4686 400.217 298.238 105.224 95.6175 68.2803 29.0375 13.754 27.3371 193.014 39.1955 153.818 150.624 30.3138 24.2781 17.8006 39.2428 20.8118 23.101 20.4112 18.431
internal_count=12064 6650 2027 4623 811 3812 1721 1361 1055 1011 5414 4758 2209 1817 1473 803 306 344 2549 637 1912 1791 396 371 303 670 207 306 306 463
shrinkage=0.01


Tree=17
num_leaves=31
num_cat=0
split_feature=68 64 17 42 28 29 66 20 51 6 36 32 29 24 32 26 29 53 70 40 50 22 67 33 44 39 64 50 52 55
split_gain=94.0361 30.1874 18.4939 25.7403 22.3718 19.7514 19.2747 21.487 17.473 22.5847 27.2587 27.3459 25.0144 24.419 24.101 22.7771 22.2612 18.6651 17.5007 16.6113 16.3731 16.3123 17.2073 15.7699 15.4965 14.9372 16.273 21.3753 14.7867 14.5578
threshold=0.16056458772163226 0.58518596959460722 0.82337052711351333 0.18101338822343885 -0.20760993255973323 -0.011641297108090993 -0.26003584625945919 -0.54179891009986858 1.3814945238299607 0.3745910186784388 0.52359223858328485 -0.3822951173456331 -0.4040259664717854 -0.16244909462511986 0.093223501493542735 0.53170849273388698 -0.13843059339623484 1.005107991939304 -0.5764670042643637 -0.2968098208422984 0.4297599743322385 0.12637958096288734 1.5388007511037007 0.66437808197585901 1.1406845915239352 1.4479047813195762 -0.011157017677726129 0.43771515508418302 -0.18322225194336542 2.2336928311081481
decision_type=2 2 2 2 2 2 2 2 2 2 2 2 2 2 2 2 2 2 2 2 2 2 2 2 2 2 2 2 2 2
left_child=1 2 4 5 6 23 7 19 9 12 11 -11 13 25 -12 29 -17 21 -15 -1 -3 -16 -23 -4 -22 26 27 -2 -10 -14
right_child=8 20 3 -5 -6 -7 -8 -9 28 10 14 -13 15 18 17 16 -18 -19 -20 -21 24 22 -24 -25 -26 -27 -28 -29 -30 -31
leaf_value=-0.0050784557101200556 -0.01835464071559078 0.0037663594086021772 -0.017462403164963124 -0.01568714888810168 -0.015075563906701138 0.0071061504655069753 -0.013342080170339318 -0.017444751199488937 -0.018260698518284702 0.0014765459219862281 -0.018318745608768189 -0.015568936409050748 0.0064980454364385624 0.0088475744487521366 0.0091597890742076866 0.012068547597058226 -0.012987787885877677 -0.011195512028463743 -0.018321445708300174 0.013075769785751507 -0.01767428546152126 -0.018216296524042445 0.012241590249799657 0.0071123693537736852 0.0044424414738431211 -0.018655622611264737 0.0082816008774028293 0.0078597033890824564 0.0075985849432746028 -0.019400622614321412
leaf_weight=9.1876194626092946 6.5085684619843907 40.753244079649448 7.6057128533720952 11.679164843633769 52.160613477230072 22.022551875561476 17.938753426074982 5.4694404415786257 2.2758090682327738 15.581398058682678 5.3068321533501139 23.769642826169729 167.79319111071527 2.9179827347397813 37.304293286055326 4.9586515035480287 12.44449933990836 6.9586858693510285 12.644891586154696 11.165433648973703 8.0896024564281088 4.8945601843297473 2.986738994717598 3.9765183068811893 5.2073408141732207 3.3464493118226519 23.755057681351904 5.9578482285141945 77.950361132621765 2.1988507844507685
leaf_count=287 260 710 303 532 2248 362 810 240 70 241 221 759 1784 36 361 45 310 161 381 91 349 173 20 73 117 67 264 74 677 38
internal_value=0 -0.573282 -0.816549 -0.289835 -1.06521 0.154633 -0.537954 0.0151987 0.266799 0.16757 -0.240781 -0.881962 0.33056 -0.261544 0.198396 0.504755 -0.584853 0.405021 -1.32274 0.488073 0.0622509 0.639808 -0.667381 -0.902517 -0.901295 0.155844 0.342599 -0.58265 0.686502 0.616305
internal_weight=0 195.256 141.206 45.2839 95.9219 33.6048 43.7612 25.8225 419.554 339.328 96.8022 39.351 242.526 55.1308 57.4511 187.395 17.4032 52.1443 15.5629 20.3531 54.0502 45.1856 7.8813 11.5822 13.2969 39.5679 36.2215 12.4664 80.2262 169.992
internal_count=12064 6122 4946 1270 3676 738 1428 618 5942 5195 1936 1000 3259 1082 936 2177 355 715 417 378 1176 554 193 376 466 665 598 334 747 1822
shrinkage=0.01


Tree=18
num_leaves=31
num_cat=0
split_feature=68 36 63 61 25 33 65 59 67 61 52 20 43 6 30 65 36 20 50 16 67 15 20 29 45 53 40 67 28 41
split_gain=91.5211 24.8417 20.7442 15.5806 15.3082 19.4482 16.8437 16.5192 17.7768 16.0913 19.4364 21.3849 18.5646 18.2282 17.933 17.2196 18.1964 15.5451 22.9249 15.2715 16.0002 21.1817 15.2497 20.6627 18.3529 16.0264 16.8882 15.2471 15.1717 14.7267
threshold=0.23804555213051429 0.66324892244999056 0.84451022580297663 0.29007419941959139 0.53161191789229345 0.55676226248289906 -0.30769521048076903 1.0000000180025095e-35 2.1598209443198839 1.0067891015585895 0.47516623630910498 -0.37399032787460113 0.74400460279402814 0.3745910186784388 1.4599737340332857 0.28884558753380968 0.52922810153190081 0.3423216914319403 0.42961210851900539 -0.34141371842205476 -0.24249660653536984 -0.3359465215653919 -0.12605731608815224 0.59287633413035057 -0.38710828580438311 0.31120786623588703 -0.52780870259315982 0.73714088135494737 0.83489815498043807 0.60272790744008964
decision_type=2 2 2 2 2 2 2 2 2 2 2 2 2 2 2 2 2 2 2 2 2 2 2 2 2 2 2 2 2 2
left_child=1 22 3 19 7 6 -6 8 9 10 13 -12 -13 14 -2 28 -17 18 -8 20 21 -3 23 24 -1 26 -26 -22 -15 -4
right_child=4 2 29 -5 5 -7 17 -9 -10 -11 11 12 -14 15 -16 16 -18 -19 -20 -21 27 -23 -24 -25 25 -27 -28 -29 -30 -31
leaf_value=-0.014195746000127626 0.0056503097813829454 -0.013578654626188099 0.0094739884654157988 -0.017015441364155781 -0.018192432907168189 -0.014647899956442185 0.0061598641815760295 0.010628375884151848 -0.012203655510557562 0.0063355605195385724 -0.015029336371647935 0.0045512136059918844 -0.018438159620943056 -0.01805457680500484 -0.019044501636228488 -0.010055036080922493 0.0085734791896095505 0.0098492644080780851 -0.018467793394131526 -0.017566716532152062 0.0090838246961686096 0.0051366451925284797 -0.012743041575222847 0.0032299311451731627 -0.017607546753371252 -0.011330323904109905 0.0055595841632893285 -0.017827209497577694 0.0050197349503605035 -0.018459619405301657
leaf_weight=29.124734377488494 117.05638273991644 14.282927965745328 21.410220190882686 8.0553250759839994 4.1013854537159196 10.256197445094584 9.2337956689298135 30.536084689199924 7.5800971016287795 111.26402358338237 13.353471435606478 20.7084528580308 4.2301453910768023 10.246959473937748 3.0164103433489791 7.8985704071819809 15.599799644201992 17.236836560070515 6.3991212584078303 5.6653756517916909 19.177678514271982 10.487977836281059 43.875651888549328 20.635735776275396 3.7730017490685013 16.088785065338016 18.952396247535944 2.3649963103234759 3.9472282379865637 2.0698042325675479
leaf_count=1259 1214 519 215 360 136 364 141 229 246 1147 349 292 117 349 72 184 150 153 207 260 305 153 1727 448 158 615 416 124 64 91
internal_value=0 -0.522882 -0.095767 -0.407453 0.287584 -0.246413 0.0915775 0.36059 0.292493 0.329808 0.157429 -0.48167 0.06517 0.312548 0.502994 -0.294133 0.231183 0.330004 -0.392113 -0.206904 -0.0173265 -0.565461 -0.792193 -0.553378 -0.819566 -0.369342 0.171324 0.612948 -1.16379 0.701159
internal_weight=0 215.965 83.5143 60.0343 392.665 47.2273 36.9711 345.438 314.902 307.321 196.057 38.2921 24.9386 157.765 120.073 37.6926 23.4984 32.8698 15.6329 51.979 46.3136 24.7709 132.45 88.5747 67.9389 38.8142 22.7254 21.5427 14.1942 23.48
internal_count=12064 6650 2027 1721 5414 1001 637 4413 4184 3938 2791 758 409 2033 1286 747 334 501 348 1361 1101 672 4623 2896 2448 1189 574 429 413 306
shrinkage=0.01


Tree=19
num_leaves=31
num_cat=0
split_feature=68 36 63 61 68 2 21 34 44 29 35 26 14 33 54 33 25 44 50 71 53 37 64 37 42 49 37 36 2 70
split_gain=89.9378 24.2401 19.3903 15.0513 14.9874 15.6438 21.0518 18.8157 21.4211 17.8222 16.1547 16.003 14.8841 24.6351 19.942 20.7002 19.8365 16.1255 16.0785 15.4594 14.8484 21.5085 16.2687 15.5369 17.0464 14.8235 14.6252 15.3697 14.4874 14.2346
threshold=0.23804555213051429 0.66324892244999056 0.84451022580297663 0.29007419941959139 1.3321901536121505 1.0000000180025095e-35 0.91833540910552536 0.34024571069147064 -1.0089193734675128 1.0496366133115262 0.36197141355791368 2.0919958576414581 -0.74961701615797305 0.56787113586456772 2.4554272249694784 0.92023836609513732 0.46585192194644343 1.0004421433171278 0.42961210851900539 0.99745697515246068 0.31120786623588703 -0.29100946598351846 -0.75044075709894875 0.64245387095644835 -0.46806184356348796 -0.12918735533005779 0.13887389456493723 0.68973747830848575 -1.0000000180025095e-35 0.0079128510338943251
decision_type=2 2 2 2 2 2 2 2 2 2 2 2 2 2 2 2 2 2 2 2 2 2 2 2 2 2 2 2 2 2
left_child=1 20 3 26 5 7 11 8 -2 -10 -9 12 13 17 15 16 -14 -7 -18 -17 21 -1 -23 -22 -25 -6 27 -3 -29 -27
right_child=4 2 -4 -5 25 6 -8 10 9 -11 -12 -13 14 -15 -16 19 18 -19 -20 -21 23 22 -24 24 -26 29 -28 28 -30 -31
leaf_value=-0.0099409531197448935 -0.017779293811405247 0.0096716729097080078 0.0068021746837874618 -0.016854388197775929 -0.018007533775217129 0.0071142922038896043 -0.013181644994064733 -0.0093692751346522805 0.0075711050291428434 -0.018193759666245632 0.0046057869603951616 0.0111307610476105 -0.013940029493154833 -0.015086745172588952 0.013113609218156455 -0.0059081701454913021 0.0097992920769194702 -0.018823012318273914 -0.017978961828093155 0.01089957707183767 -0.017156860957409151 -0.015207079694096877 0.0030808338490834627 0.0044180801519104326 -0.014183728273037278 -0.0021061830111570763 0.0047109376515385706 -0.0022124946848759105 -0.017068812225120245 0.0084930565561694687
leaf_weight=45.813678551465273 3.6381987854838362 5.0720041468739536 23.105060264468193 7.8951554894447318 2.4618920385837546 45.947745248675346 12.135831883177159 16.892758712172508 102.98979056067765 2.7566149011254302 16.207857917994261 12.966366939246653 29.299193121492863 6.4184272885322562 6.4078987911343566 11.090700250118973 7.5415077582001668 2.5288999378681174 2.8792317062616348 10.802533518522976 27.868131473660469 5.7457660082727662 31.708957018330693 9.1711142081767338 10.643598569557069 15.008400179445742 19.792913635261357 13.68030107393861 12.618474159389732 81.342792049050331
leaf_count=1876 135 44 306 360 66 454 403 367 1125 101 255 110 946 200 42 258 89 59 120 94 1267 263 676 137 404 144 306 309 702 446
internal_value=0 -0.522229 -0.0964601 -0.400313 0.285873 0.171442 -0.0562373 0.407962 0.607863 0.689946 -0.252633 0.056467 -0.0549942 0.332363 -0.367603 -0.542219 -0.972549 0.576121 0.212421 0.238509 -0.789374 -0.534558 0.0275365 -1.23436 -0.5574 0.622292 -0.202003 -0.626683 -0.934074 0.684204
internal_weight=0 213.115 82.1639 59.0588 389.317 290.504 148.018 142.485 109.385 105.746 33.1006 135.883 122.916 54.8951 68.0211 61.6132 39.7199 48.4766 10.4207 21.8932 130.951 83.2684 37.4547 47.6828 19.8147 98.8131 51.1637 31.3708 26.2988 96.3512
internal_count=12064 6650 2027 1721 5414 4758 2775 1983 1361 1226 622 2372 2262 713 1549 1507 1155 513 209 352 4623 2815 939 1808 541 656 1361 1055 1011 590
shrinkage=0.01


Tree=20
num_leaves=31
num_cat=0
split_feature=68 36 63 25 33 65 61 29 42 28 25 10 67 44 43 40 21 45 45 6 64 31 20 1 20 50 16 67 15 30
split_gain=86.019 23.78 18.0916 15.162 19.4828 15.3865 14.7142 14.6636 15.4878 18.6605 14.6492 14.5045 17.264 16.2619 24.78 19.8943 19.729 25.9555 15.4375 24.403 20.1463 27.7332 15.1243 14.8134 14.4454 20.2879 13.8724 14.9923 19.9813 13.7731
threshold=0.23804555213051429 0.66324892244999056 0.84451022580297663 0.53161191789229345 0.55676226248289906 -0.30769521048076903 0.29007419941959139 0.59287633413035057 -0.29104132580341696 -1.0000000180025095e-35 4.2264528049616148 1.0000000180025095e-35 2.1598209443198839 -0.26955619803400072 0.36285042578780008 0.80848000094216876 1.4358826535995945 0.88770095140885552 0.14716236906019745 0.90505790939533026 1.8333422804994992 0.90851333016939539 1.4885321656860582 1.0000000180025095e-35 0.3423216914319403 0.42961210851900539 -0.34141371842205476 -0.24249660653536984 -0.3359465215653919 -1.2485614862309595
decision_type=2 2 2 2 2 2 2 2 2 2 2 2 2 2 2 2 2 2 2 2 2 2 2 2 2 2 2 2 2 2
left_child=1 7 6 11 5 -5 26 10 -9 -10 -1 12 13 14 22 -16 18 -18 19 -15 21 -20 -2 -21 25 -7 27 28 -3 -13
right_child=3 2 -4 4 -6 24 -8 8 9 -11 -12 29 -14 16 15 -17 17 -19 20 23 -22 -23 -24 -25 -26 -27 -28 -29 -30 -31
leaf_value=-0.010297919906295834 -0.018663255377684908 -0.013278978849856165 0.006586132692860046 -0.017924211213700053 -0.014844682602529443 0.005543139228660521 -0.016696346117347351 0.0048440331844446906 0.0094744406216547821 -0.01701960225574815 0.011916536642490139 -0.018014545317058851 -0.013515660845519716 0.0079646202752392085 0.0052749064286726774 -0.019098462312800175 -0.013610097383288671 0.0074107917316329278 -0.009900828705195484 -0.015432967639930727 0.008915008885218385 0.010117173431069172 0.0020880022401366018 0.0093642296518972757 0.0095392209218696233 -0.018177773850538755 -0.017248628051645613 0.0060204062544734864 0.0049170184716388213 0.0089981916723807093
leaf_weight=96.963615234941244 11.325766514986755 14.021472089923918 23.139481950551271 3.878765018656849 10.110593970865009 9.0035419687628764 7.743499767035245 16.502576880156997 3.6791482865810421 9.582348637282843 3.0622925385832778 1.9532522410154332 6.4935960210859767 137.20779013261199 31.249905049800873 3.7508096098899832 13.473849587142469 10.413813956081865 23.933673575520515 7.5100280269980413 18.335612662136555 9.7362607307732087 5.0910703912377349 3.5468356013298035 16.809719949960709 6.0138965845108023 5.2833338975906363 21.23383385874331 10.595135856419802 56.105441948398948
leaf_count=3787 332 519 306 136 364 141 360 286 46 479 25 64 224 1422 412 68 333 83 524 184 110 85 96 27 153 207 260 429 153 449
internal_value=0 -0.51207 -0.0905629 0.281025 -0.259016 0.0879867 -0.384998 -0.778429 -0.162245 -0.966934 -0.961782 0.35377 0.260082 0.298059 -0.20915 0.266296 0.414403 -0.444605 0.516863 0.681295 0.0480764 -0.411227 -1.2228 -0.747849 0.317151 -0.395616 -0.190458 -0.0136488 -0.544731 0.808941
internal_weight=0 211.807 82.0168 385.944 45.8165 35.7059 58.8773 129.79 29.7641 13.2615 100.026 340.128 282.069 275.575 51.4176 35.0007 224.158 23.8877 200.27 148.265 52.0055 33.6699 16.4168 11.0569 31.8272 15.0174 51.1338 45.8504 24.6166 58.0587
internal_count=12064 6650 2027 5414 1001 637 1721 4623 811 525 3812 4413 3900 3676 908 480 2768 416 2352 1633 719 609 428 211 501 348 1361 1101 672 513
shrinkage=0.01


Tree=21
num_leaves=31
num_cat=0
split_feature=68 64 68 20 66 43 37 49 27 56 48 40 66 32 71 2 49 64 37 26 44 31 27 48 70 45 11 37 24 65
split_gain=88.0218 22.1482 19.3651 17.359 21.1736 16.445 16.4132 15.2182 14.5702 20.8622 19.8021 19.9872 20.0828 25.9589 18.7225 14.3075 23.5478 31.0917 22.4784 22.0522 17.8835 24.6696 15.0083 14.8781 14.3205 19.9819 14.5264 14.1753 13.226 12.6858
threshold=0.20990805447297123 0.58518596959460722 1.3321901536121505 1.1337661578508962 -0.26003584625945919 -0.7653241487479473 1.3765901194081505 -0.058494472144613278 -0.017849574317076341 0.37488703237478666 0.87662009357184767 0.55616549824077965 0.75467334512608886 0.62140468462034815 0.045789832094293492 1.0000000180025095e-35 0.17247553703077903 0.68171171482239157 1.4006255716400335 0.55264055673010881 0.28423411545966942 0.46139174943746281 0.19732474548622661 -0.48502252781921912 1.0000000180025095e-35 -0.015020601014583518 1.0000000180025095e-35 1.5976173583094668 0.65967241074150829 -1.8556473091109562
decision_type=2 2 2 2 2 2 2 2 2 2 2 2 2 2 2 2 2 2 2 2 2 2 2 2 2 2 2 2 2 2
left_child=1 3 8 4 28 -3 -6 -4 9 10 11 12 13 -2 -14 19 17 -17 20 23 21 -18 -19 -10 -25 26 -26 -12 29 -1
right_child=2 5 7 -5 6 -7 -8 -9 15 -11 27 -13 14 -15 -16 16 18 22 -20 -21 -22 -23 -24 24 25 -27 -28 -29 -30 -31
leaf_value=-0.017325762928265608 -0.013069478777435339 -0.0094380968099415149 -0.010300649171065799 -0.015336923332210864 -0.012111022925403352 0.0031212444053422745 0.011760311281089592 0.007662502512942807 -0.017833858636237775 -0.015115199771446479 0.0091596946640657428 -0.01773808371774856 0.011772270218034033 0.0030013275324248523 -0.017609753043201077 -0.013848666304898661 -0.015790028368019408 -0.018425494845141804 -0.011730363247440328 -0.0074990366090347919 0.01127603053061382 0.0084397903423841843 0.0067093855714324127 0.012962596331100662 0.01001075013101314 -0.011120404447718004 -0.012311363347576933 -0.018623294241878939 -0.015379657900268962 0.00027811640366013501
leaf_weight=4.393761694431304 19.727116635069251 13.854239236563442 4.9777100682258597 23.100441738963127 49.370182605460286 42.126755328848958 3.0587580427527419 89.795993313193321 2.183825008571147 10.136806163936852 25.371887739747766 8.0436563044786435 15.825491324067118 20.491500589996576 2.51310110092163 20.731155209243298 6.9654318839311626 2.7322413772344616 7.3149992711842051 10.541299615055321 33.668323531746864 10.591757223010061 18.20062642171979 38.266698561608791 28.112397750839591 6.8820910342037704 3.2526255846023551 1.9797216579318035 7.02097313851118 59.91250466555357
leaf_count=235 708 490 95 1080 2090 776 24 561 76 405 317 312 145 295 84 664 193 83 158 266 246 91 223 235 239 129 40 41 319 1444
internal_value=0 -0.533902 0.278892 -0.73792 -0.58938 0.00130446 -1.07183 0.671904 0.151998 -0.148568 -0.00151545 -0.295722 -0.0926864 -0.488136 0.774579 0.317144 0.0578003 -0.516817 0.466763 0.608356 0.700926 -0.117286 0.342868 0.790291 0.863747 0.431014 0.76959 0.714875 -0.234753 -0.0924679
internal_weight=0 202.838 388.306 146.857 123.756 55.981 52.4289 94.7737 293.533 104.089 93.9525 66.6009 58.5572 40.2186 18.3386 189.443 100.205 41.664 58.5405 89.2389 51.2255 17.5572 20.9329 78.6976 76.5138 38.2471 31.365 27.3516 71.3272 64.3063
internal_count=12064 6458 5606 5192 4112 1266 2114 656 4950 2307 1902 1544 1232 1003 229 2643 1658 970 688 985 530 284 306 719 643 408 279 358 1998 1679
shrinkage=0.01


Tree=22
num_leaves=31
num_cat=0
split_feature=68 36 0 44 66 5 68 4 53 37 64 37 42 49 52 52 6 62 66 40 10 37 38 41 60 43 20 72 23 17
split_gain=82.8928 23.7988 17.4935 16.3175 16.8274 21.563 16.1877 14.79 14.1515 20.1544 15.1508 14.2654 16.1061 14.0902 13.7184 29.3853 26.6876 19.6949 16.4023 16.8426 16.2958 15.5953 14.8891 25.3603 15.7445 19.1316 14.2671 14.2177 13.6238 13.2426
threshold=0.23804555213051429 0.66324892244999056 1.0000000180025095e-35 0.35877712554121272 -1.434088055049241 0.57667647165979041 1.3321901536121505 0.32672925438322714 0.31120786623588703 -0.29100946598351846 -0.75044075709894875 0.64245387095644835 -0.46806184356348796 -0.058494472144613278 1.1889653071116923 0.73190171209125665 0.3745910186784388 -0.14019974311647201 1.0968448238681396 0.016233491323524151 1.0000000180025095e-35 1.690397083921414 0.41031087786192866 -0.13018396171203434 -0.72320853317792777 0.36285042578780008 -1.0000000180025095e-35 4.0327965339222152 -0.24390251259450621 -0.68617413799893257
decision_type=2 2 2 2 2 2 2 2 2 2 2 2 2 2 2 2 2 2 2 2 2 2 2 2 2 2 2 2 2 2
left_child=1 8 3 4 -3 -6 14 -7 9 -1 -11 -10 29 -8 15 16 22 -16 20 -20 -18 -19 24 28 25 -2 -27 -17 -24 -13
right_child=6 2 -4 -5 5 7 13 -9 11 10 -12 12 -14 -15 17 27 18 21 19 -21 -22 -23 23 -25 -26 26 -28 -29 -30 -31
leaf_value=-0.0097066425889969239 -0.017992760119598619 0.011792239544911789 -0.017292432132875516 0.0054663981302263513 -0.012316639429812058 -0.016992802420492139 -0.010117684942620773 0.010398945663260726 -0.016795699241546679 -0.014940664742123416 0.0029569414398897382 0.01324256233913196 -0.014125120543229711 0.0072838984197700256 -0.017754758429401631 -0.01655538286535016 -0.012297860563581491 0.0077187164695715193 0.014745484537345246 -0.017362479613927555 0.0016691177897573744 -0.018237141180023685 -0.018035484917628745 -0.014910316074063644 0.0063030812525279459 0.0080525725610906367 -0.018528115497967519 0.013566695440942574 0.010733322764306887 -0.011843114069713953
leaf_weight=45.021325808949769 6.1810039468109634 5.8492963612079611 5.956125531345605 35.261936808004975 22.351432546973228 2.5152755435556164 4.9072465673089019 9.112578531727193 27.164522487670183 5.5693364311009637 31.377679700031877 5.7920755371451378 10.314399298280476 89.834276892244816 3.4539699777960768 13.430194735527037 26.728599624708295 62.265062376856804 6.8291335850954038 2.1474912948906422 12.151197545230387 2.4042360410094252 1.9651912003755558 11.011959157884119 107.51652746647596 11.123673364520071 2.4671926796436301 1.7739430814981449 10.137647178024055 3.3052135333418864
leaf_count=1876 205 55 235 659 856 146 95 76 1267 263 676 54 404 561 154 440 927 700 37 99 187 76 58 340 1244 127 68 20 76 83
internal_value=0 -0.504007 -0.0796316 0.0512144 -0.387407 -0.657091 0.2807 0.447371 -0.771573 -0.521462 0.0259084 -1.21174 -0.557057 0.638256 0.160398 0.0357083 0.138455 0.551112 -0.511968 0.706425 -0.793273 0.675375 0.345411 -0.392927 0.479489 -0.340643 0.32273 -1.30409 0.6062 0.412847
internal_weight=0 209.591 81.0466 75.0905 39.8286 33.9793 376.329 11.6279 128.545 81.9683 36.947 46.5762 19.4117 94.7415 281.587 213.464 198.26 68.1233 47.8564 8.97662 38.8798 64.6693 150.403 23.1148 127.288 19.7719 13.5909 15.2041 12.1028 9.09729
internal_count=12064 6650 2027 1792 1133 1078 5414 222 4623 2815 939 1808 541 656 4758 3828 3368 930 1250 136 1114 776 2118 474 1644 400 195 460 134 137
shrinkage=0.01


Tree=23
num_leaves=31
num_cat=0
split_feature=68 68 69 43 22 37 29 35 64 65 5 42 4 49 28 41 60 33 24 55 69 69 44 48 67 47 33 48 36 64
split_gain=79.9231 25.2716 28.5556 27.9047 24.1322 29.0874 23.5977 28.6327 23.2331 21.4902 17.4076 19.5588 16.7187 16.0794 21.2176 16.0171 14.1155 14.0455 14.1537 12.3742 15.7627 19.292 16.0407 23.2561 15.1268 14.7682 13.5281 12.3256 12.3219 12.1807
threshold=0.58204097212084238 -0.37790247389980491 0.055577286588527224 -0.1138099486089785 -0.31301824223646685 1.3765901194081505 -0.2617865238274461 -0.16292231507670249 -0.75044075709894875 0.82857936261309817 1.919025845636787 0.94810229851707983 0.41509336799638025 -0.26116827336033571 1.0282519163873463 0.13632944525237464 0.54266411945201776 1.2319546889210429 -1.1735730404534752 1.3510866750789503 0.16229984413026638 -0.22505752440657947 -0.17127807187691238 -0.01601274062473004 1.749483658049056 0.15651477250410478 0.85768138372541924 1.0454765499599596 1.1027898738125563 1.6139624626566607
decision_type=2 2 2 2 2 2 2 2 2 2 2 2 2 2 2 2 2 2 2 2 2 2 2 2 2 2 2 2 2 2
left_child=1 12 6 4 8 17 7 -3 -4 13 -5 -12 -1 14 -8 -14 -17 18 -6 20 21 22 23 26 -22 -23 29 -10 -19 -2
right_child=19 2 3 10 5 -7 9 -9 27 -11 11 -13 15 -15 -16 16 -18 28 -20 -21 24 25 -24 -25 -26 -27 -28 -29 -30 -31
leaf_value=-0.012681671773300532 0.0075555371028199385 -0.017179039491923172 -0.017124710455077383 -0.017319154337629365 0.011446717782760745 0.013361926306711553 -0.013096860093134774 0.0039391139061829093 0.0087122373605911883 -0.017962144906851111 -0.017377898358096448 0.015805107577571177 -0.010650041435963318 0.006143980091949882 0.014271129206662994 0.0075390737942514843 -0.017127672885060164 -0.017294525023155555 -0.015129161630904719 0.010986775091194183 0.0057686455419344793 0.0016219284218301528 0.0074180022674925549 -0.014837617874770583 -0.017987862882730739 -0.014845163042273497 -0.018178661321151361 -0.01820292257198642 0.013070542608500733 -0.018755908016343345
leaf_weight=42.108120964840055 21.569339916110046 13.587239947170021 4.5674703009426585 25.142907992005348 2.1524057462811497 5.8717481121420851 10.099127503111957 12.171448362991212 28.16468141973019 4.4589270055294028 3.3203720375895491 3.8196293562650681 14.943155411630871 83.856185786426067 3.9370969310402861 14.280459268018605 2.7698903866112223 1.972683258354663 29.06313896086067 23.145335268229246 148.51666071824729 9.3468440137803572 35.671426951885223 10.189438596367834 2.7295417413115493 13.050308849662541 2.7122172880917779 1.8108214959502209 4.1430688761174679 1.9157495126128186
leaf_count=1965 214 573 191 1038 22 42 393 201 338 168 140 24 591 1340 28 252 74 133 1254 163 1446 116 392 237 110 378 92 60 43 46
internal_value=0 -0.344131 -0.185433 -0.559086 -0.234573 -0.732748 0.135483 -0.720033 0.388497 0.350791 -1.3406 0.0373749 -0.854134 0.448585 -0.542026 -0.309205 0.353187 -1.05817 -1.32967 0.399676 0.333829 0.0133201 0.26528 -0.201873 0.533991 -0.797307 0.296717 0.708629 0.327605 0.540923
internal_weight=0 312.241 238.139 110.029 77.746 43.203 128.11 25.7587 34.543 102.351 32.2829 7.14 74.1016 97.8924 14.0362 31.9935 17.0503 37.3313 31.2155 268.847 245.702 94.4553 72.0582 36.3867 151.246 22.3972 26.1973 29.9755 6.11575 23.4851
internal_count=12064 8870 5988 3285 2083 1494 2703 774 589 1929 1202 164 2882 1761 421 917 326 1452 1276 3194 3031 1475 981 589 1556 494 352 398 176 260
shrinkage=0.01


Tree=24
num_leaves=31
num_cat=0
split_feature=68 36 63 68 61 27 56 48 39 35 28 2 23 14 26 54 70 28 44 44 29 20 29 54 26 53 12 49 16 67
split_gain=77.1525 20.9636 17.9132 15.93 13.8956 13.8438 17.5257 15.993 19.6186 21.4497 16.6014 13.2484 21.501 19.8637 19.2617 18.2426 17.4883 16.2029 16.1579 15.5054 13.0433 13.0141 18.0673 17.9123 19.1385 13.8811 12.941 16.299 12.9197 13.3961
threshold=0.23804555213051429 0.66324892244999056 0.84451022580297663 1.3321901536121505 0.29007419941959139 -0.017849574317076341 0.37488703237478666 0.87662009357184767 -0.19171406854039533 0.052919524347706227 -0.36819870048121633 1.0000000180025095e-35 -0.79948184664184274 -0.37118520325374421 0.55264055673010881 2.4554272249694784 1.521062667949675 0.98673086612627825 -1.0089193734675128 1.0004421433171278 0.94332489195580027 -0.12605731608815224 0.59287633413035057 -0.041948331379124688 -0.061178076672615982 0.31120786623588703 1.0000000180025095e-35 -0.2821012064252581 -0.34141371842205476 -0.24249660653536984
decision_type=2 2 2 2 2 2 2 2 2 2 2 2 2 2 2 2 2 2 2 2 2 2 2 2 2 2 2 2 2 2
left_child=1 21 4 5 28 6 7 8 26 -10 -11 14 -13 19 18 16 17 -15 -7 -14 -20 22 23 -1 -25 -26 -2 -28 29 -3
right_child=3 2 -4 -5 -6 11 -8 -9 9 10 -12 12 13 15 -16 -17 -18 -19 20 -21 -22 -23 -24 24 25 -27 27 -29 -30 -31
leaf_value=-0.011846000088331346 0.0051782091784809258 -0.0052737887697912877 0.0067910890715975952 0.0063271273150156283 -0.016308389001037461 -0.018250562440531585 -0.014650596066867345 0.0066433227267853672 -0.017589061664875276 0.0080420461437821274 -0.017524337267106095 0.012054623983212288 0.0056078552754422603 -0.014918634945483409 -0.0070155114136994422 0.013670150539908273 0.0057946197896862599 0.0056695594648147407 0.009592954911169382 -0.01805728816394481 -0.010127341353376142 -0.011953398590414908 0.0031562105352694663 -0.016632913510064636 0.010597237542881841 -0.0066393037233512461 0.01252329712162505 -0.017255079999813069 -0.016805730373768403 0.0057031938146136418
leaf_weight=40.253356013447046 28.528204826638103 23.721252381801605 22.136390432715416 92.801604442298412 7.6880096178501836 2.3067995868623248 9.1535925064235908 25.110715005546808 14.425854837521912 8.5437746141105873 3.614268757402896 13.943578734993933 35.395627044141293 25.365262132138017 9.9363897778093797 4.1313553974032393 6.9514639526605597 4.5008493065834037 68.928731117397547 3.0035604853183022 3.5255358442664138 41.961408074945211 20.035473274067044 6.0757854897528913 11.672070335596802 7.7908507175743571 2.588957704603672 6.3372341915965062 5.1850682310760012 20.924344193190336
leaf_count=1741 370 672 306 656 360 56 392 344 497 143 163 111 345 830 252 24 110 97 550 82 92 1727 448 303 161 243 29 271 260 429
internal_value=0 -0.487954 -0.0853091 0.274248 -0.3795 0.153846 -0.147356 -0.0120574 -0.277284 -0.93427 0.0441828 0.320199 0.0602434 -0.141002 0.606531 -0.625511 -0.849095 -1.1816 0.780387 0.375678 0.863339 -0.738936 -0.515799 -0.768989 -0.113914 0.369759 0.189024 -0.861814 -0.18644 -0.0129134
internal_weight=0 207.444 79.6551 369.093 57.5187 276.292 98.3026 89.149 64.0383 26.5839 12.158 177.989 93.2917 79.3481 84.6975 40.9489 36.8176 29.8661 74.7611 38.3992 72.4543 127.789 85.8275 65.7921 25.5387 19.4629 37.4544 8.92619 49.8307 44.6456
internal_count=12064 6650 2027 5414 1721 4758 2209 1817 1473 803 306 2549 1599 1488 950 1061 1037 927 698 427 642 4623 2896 2448 707 404 670 300 1361 1101
shrinkage=0.01


Tree=25
num_leaves=31
num_cat=0
split_feature=68 64 20 66 37 52 29 2 65 69 37 28 31 59 42 67 60 24 18 9 45 24 37 36 45 29 34 67 0 24
split_gain=75.3544 19.9866 18.2155 18.7631 23.037 17.5383 14.3793 14.2237 22.5457 16.19 27.1024 15.7004 15.1674 23.5627 14.165 14.1318 15.2625 25.5357 20.6141 14.1005 12.8873 12.7836 12.5588 12.5237 12.4073 18.7686 13.2256 12.2198 12.0243 12.11
threshold=0.23804555213051429 0.58518596959460722 1.1337661578508962 -0.26003584625945919 1.3765901194081505 0.61171422195058056 -0.73019572288035628 1.0000000180025095e-35 0.073392739062807202 0.20418527482671026 0.861596590159458 0.50761091871229047 0.43724870395212817 5.4964339296013618 -0.29104132580341696 1.399232832603799 -0.37154733615466423 -0.046954631199835929 -0.63510341728278008 1.0000000180025095e-35 1.0082471427956541 0.65967241074150829 -0.52098973866748433 1.2329783079255872 -0.35803172838231528 -1.2390695909613971 1.1509158813788389 -0.6623412442026485 2.0844730335463164 -0.10841421130602774
decision_type=2 2 2 2 2 2 2 2 2 2 2 2 2 2 2 2 2 2 2 2 2 2 2 2 2 2 2 2 2 2
left_child=1 2 3 19 -5 6 -3 15 12 10 11 27 13 -9 -14 16 17 18 -2 21 -19 -1 -8 -7 -18 -26 -27 -10 29 -11
right_child=7 5 -4 4 -6 23 22 8 9 28 -12 -13 14 -15 -16 -17 24 20 -20 -21 -22 -23 -24 -25 25 26 -28 -29 -30 -31
leaf_value=0.001428863251351526 -0.017886102172509025 -0.013647195702817659 -0.014931684809788379 -0.011764144616318299 0.012350896599587028 -0.015618985348831783 -0.010074797713185684 -0.015562626668345019 -0.017467341616888451 0.0088788187190978248 -0.013385896799649816 -0.017744453158173277 0.0091374132493813615 0.012297958052847191 -0.011588078844284696 -0.017344626173549489 0.010998867366916069 -0.016640478582166697 0.010523231158806687 -0.011388040026847734 0.00565498747148025 -0.016645446280555431 0.0071035291465918757 0.007380859369918215 -0.018981831722951151 0.0067020373524331331 -0.0045322486912458141 0.0070016741071037714 -0.017695580319614351 0.0017620083746651344
leaf_weight=54.585695104673505 3.0021113287657526 4.5923211593180886 23.185839204117656 48.583347329869866 4.3131037056446067 9.8526887930929643 4.839237790554761 19.415386568754915 2.2059547118842593 48.971686817705631 14.976578800007699 3.3270719200372687 9.3900350332260114 3.5981778912246218 5.082638192921876 2.8628025613725177 42.645759876817465 10.724757235497234 17.116330854594707 12.965051120147107 3.4190564416348925 4.2153650401160112 35.303246181458235 3.1162514295428982 3.2723789513111106 87.571659710258245 11.903526119887827 27.285598438233141 2.3077880926430216 46.719848059117794
leaf_count=1261 145 209 1112 2143 28 377 165 684 70 425 471 110 107 29 143 141 357 311 144 565 41 223 523 44 65 868 220 300 119 664
internal_value=0 -0.484466 -0.679272 -0.527896 -0.979784 0.0146656 0.311505 0.272234 0.0754542 0.253298 -0.22387 0.284825 -0.61623 -1.12066 0.185886 0.469836 0.504961 -0.0954617 0.628394 -0.194824 -1.12509 0.0133142 0.503266 -1.00925 0.646452 0.458252 0.535771 0.51714 0.486017 0.540415
internal_weight=0 205.552 147.848 124.663 52.8965 57.7037 44.7348 365.799 183.281 145.795 47.7952 32.8186 37.4862 23.0136 14.4727 182.518 179.656 34.2623 20.1184 71.7661 14.1438 58.8011 40.1425 12.9689 145.393 102.748 99.4752 29.4916 97.9993 95.6915
internal_count=12064 6650 5332 4220 2171 1318 897 5414 3122 2159 951 480 963 713 250 2292 2151 641 289 2049 352 1484 688 421 1510 1153 1088 370 1208 1089
shrinkage=0.01


Tree=26
num_leaves=31
num_cat=0
split_feature=68 36 63 68 36 49 27 56 48 39 35 28 53 37 37 42 64 35 42 66 44 22 47 48 42 29 2 44 40 46
split_gain=74.4038 19.7696 17.5001 16.4082 13.5583 13.3714 13.1803 16.7333 14.8974 19.0219 20.6994 15.177 12.8724 18.8864 14.2888 16.2471 12.8947 12.4799 12.3714 12.3491 15.4709 14.7691 16.312 12.2732 23.9156 15.1021 13.4508 22.0112 20.0111 19.3537
threshold=0.23804555213051429 0.66324892244999056 0.84451022580297663 1.3321901536121505 1.1757742989971345 -0.058494472144613278 -0.017849574317076341 0.37488703237478666 0.87662009357184767 -0.19171406854039533 0.052919524347706227 -0.36819870048121633 0.31120786623588703 -0.29100946598351846 0.64245387095644835 -0.46806184356348796 -0.75044075709894875 -0.74380800465249552 0.1220065489700818 -1.1521515760705849 0.44183960753520318 0.029434968843212884 -0.12245570235786334 -0.48502252781921912 -1.5301849501239135 1.0496366133115262 1.0000000180025095e-35 0.28423411545966942 -0.27246413180149381 -0.3613791611546967
decision_type=2 2 2 2 2 2 2 2 2 2 2 2 2 2 2 2 2 2 2 2 2 2 2 2 2 2 2 2 2 2
left_child=1 12 4 6 17 -5 7 8 9 19 -11 -12 13 -1 -14 -16 -15 -3 -4 -2 21 22 -21 24 -8 26 -25 29 -29 -28
right_child=3 2 18 5 -6 -7 23 -9 -10 10 11 -13 14 16 15 -17 -18 -19 -20 20 -22 -23 -24 25 -26 -27 27 28 -30 -31
leaf_value=-0.0093282259982755064 -0.0175537510219731 -0.016644078468837108 0.010695083158546037 -0.0099315727205918341 -0.010300320025916689 0.0073085247334843543 0.0091974240943330492 -0.014418312596485109 0.0064365196083024006 -0.017404243817733325 0.0076720996519000322 -0.017239323068391349 -0.016361422122401721 -0.013906044556763262 0.0047564271051064441 -0.01375764061386894 0.0028761648767942848 0.0019250524052081255 -0.0075759973395524991 0.011842240128173656 -0.010381019102249495 0.012291433228391626 -0.014646888680538038 0.0075216906282819431 -0.017783415980807387 -0.010707900079899227 0.00012972435713961769 -0.017575562659801435 0.0072108688871004968 -0.0179904132635758
